1383 256
719 -2.3508885 0.8329239 0.38865754 -1.950593 1.5185694 -3.322845 0.7405202 0.81739074 1.0654136 -3.906689 1.1389629 0.027279401 -2.1942742 1.3101774 -0.16678067 2.0045385 3.708275 0.38508552 -0.11270304 -0.4565602 0.6109127 0.13386099 1.3705627 -4.099133 0.8833415 1.3935251 0.495123 0.52888453 -2.810729 -0.35035056 0.17962472 -2.237241 0.12298835 1.2795812 -0.39259526 0.23125552 0.2722818 0.9641375 0.7605976 -0.60306245 -2.8324733 -1.0135151 0.6612917 0.44748706 0.9798334 -0.46770537 -1.7606138 1.9411556 -1.9287846 2.1091158 0.88203824 -0.89432925 0.43463683 -3.0898361 -1.1666075 0.24951108 -0.806737 -2.1080518 1.2750939 -2.2421947 -1.7421263 0.9956576 -1.679446 1.2544081 -0.03383988 1.6154623 3.3529592 2.9566686 -2.281963 0.019449638 0.49066597 0.12957275 -0.8568774 0.16280854 -1.5419327 0.6398505 2.0933867 0.7438613 0.86941195 4.2698603 -0.72176427 -2.10182 0.16220208 -0.36715788 2.4087386 -1.4114228 -0.13148487 2.1398716 -0.8134027 0.9648968 1.8346502 0.7982348 1.2069291 -0.5845062 0.19058739 1.8294798 -0.93230045 0.16033663 -0.5945573 2.346816 -2.2421396 0.7480087 -1.7065787 1.1755842 0.537709 0.9244524 1.8182354 2.2680244 2.8136642 -0.091482215 -0.7203033 0.6993469 2.9145741 0.9144012 1.8910024 -0.20648834 1.1618009 2.812151 -0.71976465 0.77318364 -0.06000818 1.7206483 -1.412577 2.4282181 0.19372286 -2.1611493 -0.17780328 0.7418005 -1.0229751 1.1089616 0.37421608 -0.23314488 0.2469524 2.801612 0.3407468 -1.2789426 -0.6651864 0.6815961 -2.0403454 0.3456707 3.3134365 -1.6641823 -0.21773726 0.3653953 -1.1838914 1.7621989 -1.188761 1.0882641 0.42103758 -1.6937404 1.0051867 -2.9867504 -0.8479291 -0.50610256 -0.662252 0.15318233 -0.16921525 1.9110662 1.6720781 0.79841167 -2.176698 -0.35520864 1.9273596 2.674203 -2.1083865 -2.3240604 -0.2704899 -0.8528189 1.0055144 0.04796762 0.6788746 0.28291088 -2.1422598 -0.80893856 0.038983732 -2.6232302 -0.9723959 0.548679 0.50944734 0.46846846 -0.20934755 -0.84562165 -0.17990842 -0.21279986 -1.0239208 -0.52207994 2.2818518 -0.54618406 -1.0152009 -1.3014717 1.3593955 -1.2468497 0.24701007 -1.4118593 -0.78881717 1.6355399 2.1118279 -0.8308993 -0.75903773 -0.23055825 0.9537217 0.82065153 2.4534233 -1.4401239 0.59959215 2.4020379 -0.864917 2.7713807 0.06926565 4.3308067 2.2708216 -0.79072976 2.1794317 0.443544 -1.4001173 1.3359122 -3.0929651 -1.8559484 0.063155934 -0.95517343 0.4058353 0.36933184 1.0958863 -0.8671998 1.2738179 2.8213763 2.2020893 0.2680633 0.99113125 1.2856543 -0.2866384 -0.06391334 -0.5006275 -3.1494255 2.6222663 1.7028533 -0.032258008 0.8635289 1.6343896 3.915853 1.6363516 0.5165898 2.4206173 -1.2542802 -0.60158306 -1.904989 -2.0177553 -1.6157664 -1.2894851 0.43796843 -0.6087636 -0.558056 -0.58396614 -0.35014257 -0.9952574 1.7439412
631 0.41659704 -1.8220352 -0.5082135 -2.0370345 0.63480103 0.117343396 2.4569778 0.8580607 -3.3631315 2.2117493 1.0732737 0.38392758 -1.377656 1.5957762 0.19353813 -0.8384528 2.645141 0.94698226 3.2121513 1.2470448 -0.01692111 1.6936076 1.1549037 -2.775438 0.8312538 1.5067878 0.51890254 0.7052056 -3.1799192 1.6551203 -0.39310864 1.4751939 1.5936543 0.21118064 0.5779513 -0.7999134 -1.1001811 1.6914124 -1.295386 -1.239184 -1.3184808 0.86037874 0.7171959 0.15250301 0.8029783 1.2659361 -2.651224 0.21441281 4.794774 4.730095 -1.2902687 -0.8019408 0.9432777 -1.2504193 0.024145968 1.3230295 1.3949484 3.4035208 0.41080782 3.7265399 0.9612271 2.3613253 -0.76835346 -0.79088944 1.8719461 -0.065704696 1.4352161 2.6399615 0.77622354 -2.7181745 2.5060744 -0.90563196 -1.222758 -0.7898902 1.2505224 -0.018241923 -2.2228453 1.3186291 1.0606983 -0.5802064 -0.04913266 -0.9734634 0.2138165 1.5885167 3.3214543 -0.12182769 -0.9266592 -0.81670284 2.3797128 0.02388159 2.205757 -0.596547 0.7308428 1.2106103 -2.4962454 -0.40439695 0.109049335 -1.3372178 0.86431545 1.8299607 1.2143105 1.7677236 1.3185923 -0.25727913 -1.1868914 0.063921474 -1.7870368 1.2529182 -0.2960914 0.97534466 -1.0920514 -0.21286227 -1.1600689 0.79720306 1.5050242 0.33650002 0.8118167 1.0770789 -2.2601635 -1.6836821 0.10896069 0.88985527 0.49003378 -1.1527866 0.10164598 -0.81516075 -1.0555308 -0.649766 -1.310333 1.0270197 0.76131487 -1.7996609 0.58025545 -3.463618 -0.99089265 -1.0652411 -1.862823 -0.9463285 0.06435557 0.84194905 1.6367464 -2.5950823 1.294341 -0.2696607 -0.61392945 -1.590499 0.45741385 -1.2692606 -0.3592631 0.3176182 1.3728231 -1.1507158 2.3104055 0.36371377 1.5301745 -1.8287841 -0.33220878 0.6545162 1.034938 1.7525244 1.7280613 -1.6349493 0.36767486 0.621659 -3.0717475 1.7074485 -2.0297794 -3.1218123 2.063188 -1.0506338 -3.940182 0.14729491 0.3390913 -4.132601 -1.4055176 -1.9818971 -0.21345623 0.26271126 -0.7451276 -0.39711654 0.7534936 1.8066338 -0.86977166 -0.1251899 -0.80970114 1.4654267 -0.6456962 -1.3200914 -2.138448 -2.3038735 -2.145791 0.11040283 1.3061779 -2.0995748 -0.58740896 0.6897465 1.3531115 -0.70679826 1.216414 -0.71573246 -1.9982444 -1.8104274 2.6049118 1.5367565 -0.04862683 2.346007 2.2065446 0.24779665 0.52251995 1.7649411 0.96109545 0.5429548 1.8747898 0.87944716 -1.2496338 -1.3825811 -0.49014908 0.7509106 -1.742459 0.110356316 -2.0444126 -0.27919912 -1.3373352 -1.4400423 1.3276943 0.37227604 -0.60542893 -1.7329164 -3.6794512 0.3255362 4.592099 -1.1883832 0.42411473 -2.0271327 0.1336078 0.4104185 -0.8288678 1.1500542 2.4970756 0.8004463 -0.5010406 -0.8681426 -1.6519074 -0.36126056 1.6728333 -1.608395 0.9985093 -1.7234622 0.04764267 2.3668783 -3.233915 -0.33699778 -0.05456685 -2.1486187 -0.11958766 -2.1988602
930 1.8929986 0.07179841 1.2471753 0.42403725 1.7829875 -1.8105719 1.2665389 0.69227284 -2.966831 1.5089344 2.2742994 0.5023444 -2.796383 0.6297444 -1.1058762 -0.5678306 4.486475 0.8819256 1.6132541 1.1245462 1.1874983 -1.2424245 1.1523001 -5.382341 -0.50999254 0.15362924 -2.097961 -1.3661138 -0.9683253 1.5648516 0.50606275 -1.6697911 -1.1483358 0.12097948 -0.33660257 -2.5794742 -0.12446862 0.36261407 -1.8947881 -2.2931352 -2.8155622 -0.34514734 1.4062326 -0.9235044 2.978053 1.5745319 1.0836064 -0.4096439 2.9809904 2.8233798 -0.8327719 0.013870901 -0.8405831 0.31510866 0.67769176 0.19260691 -0.50734246 0.97525495 -0.9777394 4.200932 0.4011877 -0.030152611 -0.54348826 -0.42648876 0.57368326 0.6657509 0.39052996 1.7193177 -0.9080598 -0.8545485 4.450994 -2.2158353 -0.74762744 -0.25790092 0.8728358 -1.5815095 -0.7660401 2.5148757 -0.39012915 -0.63300186 -1.6480584 -0.19886927 -2.518366 -0.0060032103 -0.8837835 2.5939932 -1.6610223 -2.1540174 2.6233046 -1.6246846 0.87944376 0.42933577 -1.5371549 -1.1172305 -0.13879745 -0.62580585 -0.5607516 -1.2445036 0.0911852 -0.79376876 -0.8936364 1.5350746 2.7876554 -0.39552435 -2.6212034 0.05437053 -1.6516391 -0.3052998 -2.367505 -1.8997338 -0.19887741 0.3536165 -1.4955548 -0.32768285 0.10132301 -1.2842737 -1.3983183 -0.5540879 1.5221574 2.537498 -0.47683266 1.6197102 2.8589985 -1.3158239 0.43594483 -1.7349844 1.856509 -2.7783744 1.0275062 2.6413562 -0.61191267 -0.7103392 -1.0493689 -3.5928545 -0.47563043 -0.11020763 -0.13152096 3.0375812 0.08635625 0.6267993 1.267761 -0.46899822 -2.3224025 -2.0820966 -0.59657353 0.088200204 -0.3809744 -2.3652954 -2.1903863 0.18111785 0.78635144 2.2133915 1.7127036 2.0993726 0.30526018 -1.3184085 -1.4260933 -0.7743781 1.4917537 1.1530585 1.3958063 -2.1047401 0.48312274 -1.6700583 -1.2073175 0.032796722 1.6400155 -3.63481 2.2732594 -1.3995149 -0.694383 1.4459587 0.156983 -1.8461841 -0.8275014 -3.0245793 -0.30574736 -0.35158303 -2.5905209 0.56226593 0.6475084 1.3291769 -0.18973126 -0.7552528 -2.3467934 1.6417977 -2.0352652 1.195117 -0.8962961 0.46039346 -4.3762007 0.64807403 0.112208165 0.34077895 -0.2319922 -0.20835611 -0.097160004 -0.8781899 -0.24500996 -2.3727036 0.026722033 -0.8233546 2.658094 0.21169695 0.45098206 4.696246 2.7289076 0.011492751 -0.7933738 1.2603067 -0.27545896 3.2048407 0.5073877 -0.64609486 1.6638576 2.0395823 -3.2517357 -0.67739177 -1.1970289 0.7093683 -3.483009 -1.762014 -0.71472406 0.2779303 -0.26110834 1.966577 -0.74836075 0.29190156 -1.6789156 0.21276768 3.9057693 -1.2125672 -0.69995934 -1.7931455 1.323055 -2.670426 0.06934777 -0.9580655 0.8317026 0.8831333 0.7043282 -0.61679333 0.6807844 0.5022329 3.2907991 -0.25800627 1.3465917 -1.8178841 -0.9819436 4.066149 -0.18918277 0.15470445 1.7105631 -1.2145866 1.2893324 -0.016533412
692 1.8802415 0.26257643 -0.6183226 1.279769 3.2640977 -0.71800536 1.550715 0.04311881 -1.5718962 1.2633461 1.2164965 -0.29712707 -0.44227836 -0.23204473 -0.44760424 0.8887381 2.1302178 1.5963506 2.377024 1.7984325 -1.8870114 -0.25523904 -0.22212814 -2.6661012 0.018405592 -1.1916994 1.166136 0.36786765 -2.7029312 0.88585925 -0.06271374 1.4174325 2.074261 0.69187117 0.5892251 1.3560512 -1.5859479 -0.08778878 0.16278118 0.50196886 -1.6080356 0.2171898 0.7180749 0.8507732 1.6257107 2.2900784 -0.69968885 1.046496 0.8816174 5.1174045 -3.8644888 0.15811755 -0.029115565 -1.6444288 0.4896261 -0.2242518 0.36459154 3.5601761 -1.2354592 3.175517 1.4393139 1.5797268 1.1958104 -0.8807777 3.7559545 -0.7688057 -1.5359142 3.0779839 1.4535036 -1.4985284 2.111001 -0.8340283 -1.4826881 -0.8102802 0.24371217 0.8499996 -2.0957313 3.9481363 2.4303322 -0.41698623 -0.21107613 0.6816104 -0.5899539 -0.3330922 0.7403463 -0.026575632 -0.5495958 -2.5282059 2.2104635 1.1874264 1.9358742 -1.8985783 -0.12705569 0.51334184 -2.101068 0.7144889 -1.102406 -0.91028136 2.7392316 0.34679255 0.5186006 1.6830615 1.3982306 0.8992584 -0.88910687 1.0012319 -2.361958 1.2319739 -1.1483164 0.50588727 -0.07846168 -0.66784036 -1.2724897 1.6409175 1.7848979 0.37707666 -1.485153 -2.0710468 -0.33943632 -0.18186887 -1.1239877 -0.17915696 -0.29031232 0.8046567 -0.24193239 -0.3873309 -0.30161104 -1.5756278 -0.9987552 -0.92022794 1.1296613 -1.1830673 0.14917028 -2.901629 0.045338612 -1.0621694 -0.95419025 -1.4653735 1.4030542 -1.5660338 0.55185896 -0.707239 1.3001045 -1.2268018 -0.93742025 -0.44831696 -0.62826526 -1.7904898 -0.5158004 -1.0127339 1.8988081 -1.5874475 1.7209519 1.8291516 -0.5716686 -4.7851877 -0.53193 0.15289189 -0.23758174 2.0308468 2.2607334 -1.2499609 0.13725984 0.35359848 -0.024773154 1.3992469 -1.1547128 -1.571931 1.2661968 -0.06511251 1.1571108 0.7204131 1.074544 -3.1834106 -1.3203996 -1.1305897 0.37302616 0.38465962 0.020373406 -0.48581433 0.8535878 2.4253843 -0.22598712 1.0683064 -1.944896 2.3363366 -0.10437188 -0.26743475 -1.5030482 -0.41439107 -4.0059485 -0.3417495 1.3215963 -2.101275 -0.66073376 2.571394 -0.005983292 -0.53140056 -1.038082 -0.3660731 -1.2109188 -1.1657072 1.5798593 1.1835257 1.0160431 3.8957322 1.7123924 0.14529692 0.9478964 2.2124093 1.056552 0.59856784 2.3931715 1.3887216 -0.3520865 0.9884068 -1.6163938 0.7957934 -4.422316 1.0946878 -2.1729624 -0.34836856 -1.4932474 -1.3926363 1.0948262 2.7532852 -0.76165533 -0.5309955 -3.492762 2.070697 4.856862 -0.56548035 0.43694502 -1.6018852 0.4114774 -0.1615072 2.3770466 1.6675823 1.2800936 -0.5700752 -0.16227286 0.73834234 -0.2592621 1.0820346 2.1946957 -1.5527762 1.6542485 -2.4491866 -1.7061882 3.9050696 -1.0686779 0.98652 -1.0501025 -2.434736 0.101975985 -0.27109694
667 1.4106847 0.9438504 1.3938103 -2.289433 -0.640186 -0.1915934 -0.9286344 0.61432767 -1.9520402 -0.3474188 -0.06975226 0.12260216 2.8524394 3.3866332 0.69437593 -0.0782566 3.0087147 -1.4211686 -0.9551448 -1.4438611 0.9768706 -0.9040558 1.6462817 0.7357104 -0.605148 0.004532207 -0.7351828 -0.122530684 -0.7729786 -1.7838992 -1.1310649 -1.0815976 -1.6615413 1.0786122 -3.2453556 -0.6125899 0.19633044 -1.8556223 0.2796147 -1.7662742 -0.20657724 -1.6433787 -0.9520962 -1.3720597 1.4005185 -0.2541192 -0.79956 2.3102112 -0.14150308 -1.9355403 0.5347317 0.37142417 0.2901303 -3.743167 -1.8490149 0.5125909 -0.41631722 -0.74847895 0.83106875 0.95423037 -1.8690636 1.5502863 -1.3437253 0.77643657 2.6375623 -2.0308106 1.5565063 -2.4033387 -0.8610939 1.8131171 -2.400194 -0.57378834 0.76296633 1.0434585 0.13901456 0.47303683 0.6805886 -1.3525686 0.79815507 3.5856686 -2.4398322 -0.94645494 0.8389017 -0.31224105 2.3653913 -0.5924885 4.1791325 0.7665213 1.4794672 1.1090987 -0.5573797 -0.18419008 0.87547284 -1.4076716 1.613003 -1.0605797 0.66659343 -0.71687526 -1.1138773 -1.685455 -0.36982468 0.37531906 -1.6681865 1.0317583 0.71787465 -0.32002357 2.131047 -0.3066374 0.84680516 1.8547451 -0.9037995 -0.56496 1.6418799 0.46235317 1.4937239 -1.7905488 2.6667864 1.2667695 -1.9689552 1.421567 0.66412175 -0.048463654 -1.3225431 0.48435986 0.933627 -2.053407 2.0119665 -0.84967786 -1.2405111 1.1864611 0.0033866048 1.6283629 1.3777529 1.7884853 -1.6847333 0.97699726 1.5955079 -3.045344 -0.14601444 -0.72584224 0.23938027 1.1272547 2.3026962 -1.0987488 -0.5135467 2.4677951 -0.9019927 2.3879664 -0.20196599 0.24363941 1.2358729 1.4068291 1.3463359 0.2235962 0.5960891 -0.17995365 -1.0995445 1.0684651 -2.2857888 -0.49635518 -0.45903847 0.86984116 1.5947708 -0.6818483 1.5241138 -1.3612617 -2.4334986 -1.3004706 0.40008232 2.4838486 0.51475656 1.5216143 -3.1770985 -1.4209614 0.6872173 -2.2015178 -1.3597794 1.8448759 -0.4416756 -0.57102394 -1.6841292 -1.3484672 0.20983808 0.80124 2.3655784 -0.28010222 1.3475072 0.9207 -2.608459 0.020950474 1.691317 2.5630572 -0.21988416 0.78867084 -0.856159 0.6402966 0.97743547 -2.180819 -1.1509334 -1.863247 -0.23398122 0.48539445 2.6042335 -0.068694696 0.10879573 0.37843046 -2.375105 1.4665086 2.7599254 2.0122159 1.5783703 -1.190878 0.38901737 -1.5404953 0.66988814 0.22150223 -0.4813957 0.91503584 0.024087505 0.5554148 -0.5326511 0.24629493 0.9457863 0.4125278 0.2980358 1.8064196 1.0932039 -1.4641523 0.46131584 1.555904 2.570917 -0.23931171 0.5090065 -0.48492834 1.3466364 -0.42969415 -0.33507136 1.6615623 1.0625888 1.8863217 -0.03203551 -0.40759248 4.744432 -1.1162356 -0.124852486 -1.9265399 0.87819105 -0.47195083 -0.8429416 -0.6482492 3.394352 1.8542902 -2.493545 0.7261521 -2.8047228 2.0155737
984 0.5867765 -0.08728843 1.5590285 -1.1067722 0.092314385 1.1178772 -1.0542011 0.35462227 -1.1258495 -1.1875348 0.08412642 2.2164505 1.3612206 1.0138165 0.14365773 0.4725128 1.7810007 0.7702718 -0.60118216 -0.78038216 0.3661486 -0.41883603 0.8867507 -0.23985061 -0.22212423 -0.59466124 -1.3932619 -0.22595537 1.3472341 0.08276152 2.5964997 0.32857084 0.74496716 -0.103406884 -2.9708548 0.0053590015 1.9274246 -1.8862847 -1.4034982 -0.6222642 -0.5982828 -0.7338974 -0.3334554 -1.8880969 -0.6516644 1.3339715 1.8306715 2.6102386 -0.33511 -2.074108 2.0003455 0.045166057 0.0154783195 -3.2306118 -1.2827021 -0.13504153 -3.01286 -0.51307034 1.616866 0.8667827 -0.8008698 2.0078394 -0.3648171 -1.1035498 0.014344235 -2.4064672 0.99327874 -1.6300622 -0.066065945 1.4549342 -1.2966784 -0.40127283 0.25775284 0.6894094 1.2660998 1.8671398 1.7401607 -2.0823119 0.58787066 3.3978431 -1.6508347 -0.24305764 1.7899069 -1.7961797 3.2714813 0.14311029 1.963089 0.7528501 -0.14165618 -0.62304217 0.7281254 0.64570326 -0.4414642 -1.0288488 -1.3556271 -0.681603 1.5730076 -0.7683824 0.9146238 -1.7215495 1.8163441 0.8818561 -1.4264692 -1.987785 0.98300064 -2.1242092 1.4421554 -1.1489056 1.0003227 3.4096813 -0.8367095 0.0134988865 1.510416 -0.14621238 0.30721912 -0.37145475 2.9130502 2.3268347 -1.4525616 3.6129727 1.2140844 0.925181 -1.0365866 0.18195501 1.2776018 -0.29403642 1.1097974 -0.054190382 -0.7740175 0.80946743 0.65691227 1.3938751 1.3251259 1.6969296 -1.5364814 1.1198951 1.2869132 -2.3346622 -1.6298326 -0.104877315 -1.5318009 0.45684114 1.4699601 0.17741865 -0.7746135 0.6829726 -0.0839018 1.5119011 0.2362847 -0.11178535 0.21499169 0.997429 -0.6707028 -0.3177844 -1.1836604 1.6005846 -0.14498559 2.1049309 -0.06593837 -0.57603985 2.114831 1.8475602 -0.20654719 -1.2690861 0.54140747 -0.70230097 0.6555392 -1.0704675 -1.9015508 3.5859754 0.75884604 3.2771146 -2.2064686 -1.1893735 0.6817057 -1.869227 -1.2842379 0.04118703 -3.150939 -1.1895616 -0.8580394 0.7158291 -0.02330867 3.4512997 2.6568646 -2.0092375 0.58995485 3.0759954 -1.4153287 -0.5444016 0.023012698 -0.47460374 -2.6587696 -0.5303558 -0.894485 -0.71288955 -0.20015948 -2.82502 0.97429407 -1.5666624 -2.1699073 -0.111093715 0.9096097 -0.71223056 1.0405632 -0.26149288 -0.011178856 1.1054342 0.38878658 1.5392588 -0.5487942 0.7240484 -1.0392011 -0.40969908 -0.3031183 0.35530293 -1.3271261 -0.07294414 -0.28593853 1.0516878 0.7425473 -0.40051118 2.6869478 1.3307923 1.5450248 -0.18092003 1.3237715 -0.56767434 -1.4361025 0.52774704 2.0131428 -1.3887203 -1.353085 0.11753965 1.1244385 0.67035085 1.053229 1.7329557 0.4352638 1.6284072 2.38296 -0.25840345 0.63311 1.6934733 -0.7918329 -0.5624762 0.5174916 -0.31643763 0.12792353 -2.1591258 2.492018 1.3184757 -2.9283464 1.2949635 -4.1144385 2.4687722
320 -1.2255601 1.2004284 0.019865582 -0.95071393 -1.4921811 -0.3114511 -4.2575893 1.6549071 2.3927035 2.7977035 2.2263067 -0.18413931 0.48935047 0.13850474 -1.1362257 0.7187122 0.30035987 1.1848146 -0.9120918 -3.1812034 2.003257 2.06391 -1.8238883 1.4070319 0.8965893 0.30046222 -1.0362039 -2.2947028 0.35518283 0.8100392 0.83937216 0.75352794 -1.3846743 -0.07262888 -1.9461834 -0.3655334 1.477819 -1.8888208 -0.015853152 1.1130987 2.0989118 2.2252934 3.5172646 -0.272627 -0.57222635 1.5169106 -0.5949799 2.3629339 1.2098496 -0.4434046 2.419598 1.5320399 -0.64443666 0.82001626 0.8409632 2.9579651 -0.4004949 -0.08856938 2.8883219 -2.7453225 -3.2821612 -0.31797388 -1.171891 0.10171571 2.954411 -0.40593743 0.90999943 -1.7591286 0.5564829 -2.6035142 -3.7603238 0.57495874 -0.24833116 0.16104905 -0.39902097 0.6220268 0.30621424 -3.1577246 -2.2979639 -0.53666836 -2.4752927 -0.19556029 -1.7316645 0.25423932 0.5861473 -1.107194 0.20266291 -1.0806013 0.9948551 -0.38940275 2.5199225 3.4007287 0.53191173 0.55190027 2.0284877 1.6294748 0.20620206 0.44454902 0.49901327 0.45999274 3.5203984 -2.479044 0.6161452 1.0048375 -3.1183255 -0.37809953 2.65785 -0.007943776 0.4172019 1.3034348 -1.5789002 -0.7564973 0.5893373 3.6136112 -0.36087066 -1.2771769 -1.5815567 -3.6632197 -0.49716353 1.3677949 -1.4001368 -0.8029439 -1.1757374 -1.2007791 1.3148907 -1.1230956 0.20998688 -1.8447337 -0.54411685 -0.3980427 0.23721799 2.635762 1.5590421 5.1332626 -2.4456468 3.4299374 -0.05614031 -0.96278286 -0.019359235 -3.1053402 0.6328809 1.9902192 -1.3122427 0.087014645 0.101269126 0.5272025 -0.31720895 0.76009935 -1.5997182 -1.4421692 0.04066176 -1.6605252 0.8945572 0.8532041 2.7948797 0.835284 -1.5418099 0.27348053 -0.9910863 2.2014549 0.6837888 3.446495 -2.4726691 0.9699834 -0.45514414 -1.4348551 -2.958921 0.7996447 0.35314274 -1.9246968 1.2316132 1.4548098 0.83537525 -0.4389252 0.15483193 -1.1504309 0.67755336 -0.8283679 2.3884077 2.024728 -2.8204367 2.309721 -0.29993236 -0.9141187 1.9463584 -0.97542274 0.5251206 1.2902231 -0.08630324 0.7994414 0.28689998 -0.39253098 -0.031662922 -2.040497 -0.20382836 -0.2998411 -1.8926885 2.9107187 1.1968585 2.3522713 -2.107073 1.5839977 1.8140268 -0.64030254 -1.3251438 0.12998259 0.4941064 -0.93024266 2.144863 -1.1959994 0.6236413 -0.6852429 0.4184149 0.76877546 1.7209274 -0.955496 -0.081173554 -0.63556886 0.9872477 0.48351035 0.9196551 1.6898136 0.4131741 1.8725454 0.86144346 3.3656301 -1.6685458 -1.3520001 -1.112081 -0.16792491 0.30434886 -0.11392457 -2.3627918 1.6783768 -1.5374945 -0.1365269 2.3540401 -0.23870441 1.5634791 -0.71136296 -1.2601053 -2.1276572 -1.3963801 0.10192272 0.052975968 -1.3124274 -1.217721 -0.24886489 0.74119186 -0.3375319 1.4301194 1.0817791 -1.7739812 0.32685864 0.5951529 1.6456861
616 -0.942837 1.5713933 2.1854107 1.5136617 3.0742047 -0.9765656 -0.6287702 0.21953149 -2.2293 0.6365862 1.043903 1.3986921 -0.94994664 2.3118505 -2.4924927 -0.9819346 2.386933 0.69683254 -0.585607 1.5066779 2.0686269 -2.1062167 1.0893409 -4.432351 0.3138889 1.2161624 -2.5880702 -1.4790257 -0.37398773 -0.631448 -0.0038964539 -1.5785474 -0.6650823 -0.13325776 -0.42805818 0.7763561 0.48711032 1.3956814 -3.3862178 -2.145223 0.5187558 -2.4687138 -0.44254377 0.9380652 0.114428245 0.9892748 1.7806411 -1.4907669 2.5221577 -0.57703495 0.045383513 2.60332 -1.4958191 -0.37062472 0.36906552 0.3023324 0.9266923 -1.7757372 -1.5423307 0.8737478 0.98161995 -1.1216685 -0.3644202 -0.99358505 -1.8000062 -1.2725315 2.6562698 0.88272536 -0.11623708 0.8803071 2.281426 -2.0520878 -0.5088491 1.4491313 0.3069658 0.07733868 -1.4610102 1.2516543 -1.8600755 -0.018799251 -1.5094341 -2.1106954 -1.0620462 0.37881595 -1.5937006 1.2937384 0.052321024 -0.5655843 1.7213036 -1.780838 0.48229113 -0.6773399 -1.2413783 0.19899376 2.2536888 1.968538 0.42410076 0.35546145 0.83718777 -1.8680079 -0.10239502 2.140139 2.587581 -1.2144816 -1.8385 0.20853096 -0.19370441 -1.3015114 -4.710837 -1.4435662 1.2718463 0.61093235 0.3670665 -1.7122722 -3.4174666 0.09216851 -1.6109649 -1.5549736 2.2401755 3.1217582 1.1446887 1.3702441 1.6301111 -1.1356056 3.2059138 0.6271037 2.5388558 -2.180883 2.0024388 1.5455822 0.3065667 -1.0372583 -1.0285257 -0.9615145 -2.0582137 -0.34073973 -1.0892576 2.0595462 0.71299607 1.1633154 -0.49918422 1.6741788 -2.5570204 -3.1587777 -0.816241 2.5288014 1.7022543 -0.8863554 -1.6475194 0.43022034 0.007383194 3.2802165 -0.56960714 -0.36742058 0.7295662 1.8276631 -3.1744614 0.9637959 0.2314415 1.4638604 0.3917136 -1.063601 -0.15007631 0.830528 -0.06776459 -0.41285214 1.225059 -3.8030288 -0.17848033 -0.572853 -1.7238001 0.5986408 -0.9643563 -1.2515078 0.5421939 -2.1931758 0.66567856 2.664705 -0.711243 -1.2198209 0.9082068 -0.29903063 2.541442 -1.9878087 -0.73128474 -0.21057518 0.55079806 0.38348302 1.243531 -0.4413122 -2.7938352 0.66196245 -0.85064185 -0.4533859 1.6185067 -1.1552178 1.3813661 0.7750244 -0.63233453 -1.128184 0.4806369 0.24219182 -0.5016866 0.28546518 -0.6724257 1.7805094 0.015610988 -0.41600674 0.40972167 -0.6199254 0.12428054 0.5917204 2.5063577 -1.1386689 -0.07162841 1.3794426 -3.1794558 -1.8135208 -0.36218145 0.560808 -3.7363598 0.64597 3.5249043 -0.35050526 0.07110337 0.3817573 0.95023733 0.9199195 -0.5975434 -0.018802129 1.6613743 -0.24136713 1.708105 -0.6518781 0.62007004 -3.0253184 -1.0250943 -1.1270549 -0.6482236 -0.022599442 1.6211897 -0.30802673 -2.8791242 1.9824417 1.83115 0.28247073 -0.70029205 0.71185297 -0.7436021 1.3007997 -0.8207861 -0.35378206 0.63009185 -0.85775226 1.9289368 -1.1740888
321 -2.839697 -0.1791992 -0.68760574 -2.3941464 0.16227244 -1.1433052 -2.6312044 1.4577265 -0.27233002 2.6402001 2.029069 -0.49294806 1.0327487 1.8854473 -1.5070751 0.53306377 0.3324094 1.585337 -2.7191641 -2.132241 1.2983391 0.46009055 -1.9752759 2.4238315 0.70602846 -0.12222343 -1.7384089 -1.3686713 0.012144212 2.3443139 1.6854161 -1.9023297 -1.332965 0.917308 -1.265489 -0.59170294 -1.6550502 -0.004192765 -0.9421197 -1.210839 -0.4472781 3.2091858 -0.13433722 0.3976548 -2.2176616 -2.5108225 0.58564746 0.09727402 0.9974608 0.013131124 1.4102527 0.9271926 -1.0593996 1.5744869 0.08646187 1.0676264 -2.3836281 -2.2273028 1.0256641 -0.38981637 1.2158219 1.6764475 -1.1782414 -1.495457 1.3303705 1.7478967 -0.7493948 1.394327 1.225525 0.93458235 -3.0724833 -0.20054051 -2.152827 1.0672486 0.9045583 0.4676352 1.4535958 -2.2340162 -2.0678363 -1.0726665 -0.42095715 0.26926032 -3.4237888 -2.5013485 0.9665661 -1.061982 -1.4362763 0.11876123 0.6619036 0.041681245 -1.3714298 2.007785 -3.074383 -0.68070465 1.6729628 2.532369 1.4995655 0.68035394 0.94281596 -0.06904811 -1.7761567 -1.6705229 1.2205513 0.31477645 -1.0425882 1.4815346 4.4848557 1.9655288 0.6727856 3.5238085 0.4290748 -1.1842221 0.32708314 0.9075848 -1.0888805 -1.7816509 -0.20585032 -1.3688985 -0.3343424 0.6433476 -0.28142112 -0.23493518 -1.4613599 0.14971091 -1.7380402 -1.0749341 0.5060406 -0.3743604 -0.59292233 -0.48026654 0.26495478 0.15673323 1.2732882 2.2897348 -1.975715 4.1642594 -1.6083965 -0.20403823 2.2396073 -1.8836474 0.14920805 1.9073448 0.5532432 -0.5542424 -0.0133109335 0.53229535 2.3200903 -0.6427668 1.0975437 1.0296277 -0.308703 -0.52085024 2.043014 -0.71362543 2.285094 0.32728374 -2.4796197 -0.5161406 1.9033352 -1.7882153 0.75027317 1.7114184 -1.3929114 -1.7129028 1.1351051 -2.3249104 -3.6780643 3.2149441 -1.1125824 1.0748503 0.1948711 0.8615374 -1.0780367 -0.10075918 -0.003070817 2.182478 -0.8940094 -1.4109565 -0.7536301 -2.0840807 -1.2100073 -0.5240611 -0.63847405 0.7012438 0.42197782 0.8171787 -1.4052579 3.1327138 0.16357173 0.99129736 2.1642118 1.1211627 0.03025908 -1.2849306 -0.6542465 0.039401744 -1.964072 1.0229844 0.7322627 -0.1662638 -1.3441572 -0.53312916 4.139082 2.807274 -3.673975 -1.1382376 -0.023837188 -1.0891411 1.4871644 0.6471412 0.6607167 1.2746428 0.6951311 2.870472 2.3500714 -0.22340946 1.1599089 -0.24267787 0.31881493 1.6366045 0.5122987 0.80039716 -1.5414208 -0.7666012 2.5842166 2.0162458 -2.375485 -1.1429945 2.6058285 -1.3249679 0.6326668 0.39685318 -0.8745008 2.524928 -0.15086348 2.659574 3.2362504 0.25516963 2.0315351 -0.23114406 2.0374448 -0.8345424 -0.10821409 0.22217678 0.46972707 0.26638672 -1.7111835 3.0803714 2.299205 -1.2023804 2.0595539 0.5383979 -1.0946605 -0.5134015 -0.5516322 -0.7035836
801 1.564245 -0.44222155 1.0032442 1.5512241 -0.3063512 -0.39351112 0.24137338 -2.9340663 1.7354106 0.11364059 -0.58037704 -0.8281466 0.028624207 -1.4150019 0.17925462 -1.4852676 1.2196999 0.35360748 -0.09683715 1.976377 0.14552303 0.039921112 -0.19957453 2.9006736 -1.2071279 -0.029798163 0.39961326 0.06829293 0.73671407 0.01826387 0.23735265 -2.2829678 -0.6893658 -2.673796 0.24260181 -2.0583208 0.7481548 -0.2556609 -0.24418285 3.112267 1.9289021 0.17608337 -3.010804 0.88533324 -1.1754174 -0.8319301 1.1414313 1.3267553 -3.4534733 0.56571007 -0.62049985 -1.7865505 1.8686442 2.8583105 1.2336416 3.4393723 0.75497305 -0.09189767 0.37367362 -0.08335038 1.9783019 -3.0189404 3.1356037 -1.3400381 -0.30243942 -0.844793 0.95142215 -0.27246848 1.3878498 -1.6457647 -2.364875 -1.9935079 1.2927771 0.27283064 0.63853717 1.0651869 3.359334 -0.9991902 -0.38367355 -0.60051364 -1.6781139 -3.3324845 -2.762943 -1.0697694 -0.69042903 2.2400696 -1.0814184 1.3242736 0.9912441 1.0132298 0.26158845 0.83851427 -3.2921875 0.7255843 2.1366339 -0.07890377 -2.917919 1.4733083 -2.6450343 -0.2799616 0.76527387 -0.6556369 0.19356528 -2.5229497 2.4127986 -0.047920942 -1.4855404 -4.01133 0.43072146 4.089063 1.7453315 3.1316056 0.20161892 0.10116724 -0.8352988 2.2507539 1.2486774 -0.06668607 0.026159668 0.60044724 2.8218417 -0.8325692 1.6227437 -0.32248747 1.9717174 2.647579 -3.3901112 -3.676255 -0.29958177 -0.6475705 -1.0544785 0.11508044 -1.9053141 -0.7740442 -4.065247 1.8947799 -0.5934377 -1.0005921 -1.6500894 -3.661738 2.0426786 -1.6817542 1.3721815 -0.3746691 1.0464565 -0.19377029 -0.7098186 1.9293894 -1.0312003 -1.1981065 0.14229998 -2.3081641 0.3566543 -2.4128404 -0.8200644 2.1588056 1.7319071 -0.98292816 0.8277902 -2.719162 -0.5442881 4.076441 -0.25650653 1.4487778 0.43908358 -0.3981802 0.437325 0.9330943 -1.0420148 -0.65889394 1.2222581 -1.2121687 -3.11058 0.18016736 -2.75321 2.5020285 -1.5543423 1.6195047 -1.0887508 -3.7452302 -0.7235368 -1.0472142 -1.2176298 2.5573697 1.0485992 -1.313219 -0.14641686 -1.543403 0.2344644 -0.6925371 0.8533564 0.55918187 1.5654489 -0.533235 -0.09313597 -0.7133365 -0.043811183 2.1251125 2.9794054 1.5841765 0.17986378 -0.3451524 1.3082165 -0.0360303 -0.42597458 -0.23428689 1.7423215 0.12817653 -0.6306086 -0.39518994 0.16735993 -0.54643637 -2.600643 1.9796395 -0.66102403 -0.28897306 2.7631156 -0.4436902 -0.25455654 -2.6719103 -0.74735886 2.047254 1.7955112 1.3679419 -1.2838717 0.44299978 2.4405456 0.73619604 2.78114 1.5424814 -1.802463 0.88136774 1.821872 -3.1051583 -3.4885318 1.2124642 -2.5065453 -0.8500808 -0.3214269 -0.13940544 -1.7201087 3.3623655 -1.3262948 4.003399 3.4772365 -1.0998567 -1.0532016 0.0853105 -3.1530857 1.4101255 0.085160255 1.4017663 -0.33506244 3.6095326 -1.2267697 -1.1611716
132 -0.31281832 -0.9846971 -0.9266519 0.34768736 2.6753104 0.58017 1.564549 -1.9914488 -0.11034839 0.8447117 1.6638612 -2.0773997 0.12518945 -0.3705441 -1.8140877 0.26268128 0.65382767 -3.2462893 -0.25150904 0.3686108 -0.050349426 -3.1689727 -2.3239367 -0.60157454 0.10452559 0.32163018 -0.3829499 -3.120163 1.9675307 -0.68344563 -0.25932783 -2.00937 1.0836354 0.30440828 1.54767 1.7008705 -2.6733317 1.7656895 -3.922649 -0.07277211 2.2801998 -3.0751104 -0.6366499 1.3924766 1.044474 -1.181629 1.4940319 0.80739355 0.38469106 -1.181248 1.1966559 1.840691 -1.5286727 0.027225006 -1.1906458 -0.9770992 -0.76063925 -0.24966682 -0.756438 0.7342453 0.9535841 -1.5453959 2.0015597 2.5549357 -1.7437576 1.1582779 0.66743886 1.3526787 0.24799323 0.25980294 -0.022481887 -0.39735034 2.6675115 -1.2094826 1.9990585 0.7657216 -0.18442607 -0.017054206 0.36361027 -1.4452362 -0.4783478 -1.3941284 -2.5984757 0.3595782 -2.1298623 1.5080181 0.17070578 0.50500983 -0.39855623 1.7286828 -1.9967009 0.6336211 2.0266812 1.2517165 2.293499 -1.5657073 0.05698046 0.25267008 1.6472743 -1.8052028 1.2205057 -1.718707 0.47407955 -1.5794265 0.7177738 0.9293905 -0.13514987 -1.7884816 -1.1935232 -3.1468842 1.882717 0.24696186 2.1927862 -1.3854812 -1.1576542 0.18249464 -0.7660867 0.42192706 0.27773649 1.4357052 0.75671697 -1.1334198 -1.2934436 1.9683393 1.1065835 0.71811664 -1.547451 -3.317351 1.8443255 1.3434815 1.3414526 -1.9209871 -0.51369613 -0.007035197 -1.1909086 1.0890447 -0.051037658 -1.0669899 0.092999175 -0.43842807 -0.48824674 0.6062791 -2.802267 0.544222 0.5007315 1.1478615 0.43609574 -0.65682775 1.9795296 -0.7541465 0.08944047 2.4821622 1.2714124 -1.355042 -1.296879 -0.08137946 1.1107646 0.26582727 -0.708209 3.3589723 -0.0019777142 1.0930525 -0.56705076 0.40406945 -1.1749182 -0.78389287 0.7108026 0.10185646 0.25326276 -1.6896894 -1.7759763 -1.3422847 3.6152887 1.7972734 -1.1369712 2.854956 -0.3776916 0.1801339 -0.8184873 -0.77478087 -1.6398785 0.17544922 -2.6739001 0.08390417 0.260233 -1.4306246 1.4520693 -0.21768999 0.34610525 -1.1016943 2.9543393 0.74592584 0.73236763 -1.0164518 1.6921707 0.60707754 0.025441669 2.2477555 -0.08007731 -1.7936962 0.92825294 -0.9601044 -0.8713133 -0.50574744 0.79639727 -1.8235731 1.7303352 0.3510575 -1.3360127 1.1724261 -1.0089839 -2.0219564 0.8203704 1.995618 0.013069019 -1.1254596 1.2266337 -3.234338 1.7750367 -1.8188833 0.9786319 2.4510071 0.08760089 0.7740959 -0.5063617 -2.4409072 0.21402553 1.2151669 2.0309618 -1.5049645 1.1009742 2.718162 -0.27000013 -0.1102381 -2.249992 0.8332294 -0.37773767 -0.24692473 -3.2867367 -1.4805679 -0.7673973 -0.9286892 -1.3589095 2.6157963 -0.40019897 1.1110902 -0.96867156 2.1799982 -1.2392879 0.25903735 -0.2899714 1.2234513 0.5403137 1.7313093 3.4885862 -0.15339465
1317 -0.8465106 0.8025045 -0.11798916 -3.765477 -0.74480087 -0.6836036 -2.5782986 2.1469681 1.4168891 2.0476239 2.0414526 -0.27610898 0.32039994 2.2852266 -2.8565018 1.7066038 -0.06545211 2.469346 -2.8819172 -0.2663854 2.5156682 0.14802317 -1.7981383 3.186521 1.6913558 -0.7769545 -3.4511247 -0.7790016 -1.6045281 2.0524669 3.1880777 -1.9461032 -0.3111359 0.36865482 -2.0059602 -0.17773952 0.41753864 -1.7834452 -1.8420874 0.4171158 0.15353873 3.1633894 1.3003681 -0.11805579 -0.6738731 -0.25133628 -0.84892046 1.299597 -0.2473701 0.5509587 2.4320724 1.258791 -1.1269245 0.06362809 -0.56103104 0.13962756 -1.6211201 -0.9880822 2.0754366 -1.6895638 -2.0693438 2.5818746 -1.6175971 -1.5539228 1.6675615 0.2063599 2.5383584 0.583254 0.2517556 -0.67362285 -3.1193805 0.97486645 0.62799656 0.55014753 -0.39563045 1.6225897 -0.062693134 -3.5245733 -1.7889042 0.32683313 -1.2845777 -0.33333248 -0.90887594 -1.100025 2.8747501 -1.3597616 -1.5965217 -2.3328114 0.49283886 -0.07432885 1.3385469 4.266187 -1.6699222 -0.1970478 3.0411992 2.0613623 0.51046365 0.21834281 -0.5459586 -0.04099268 0.6723988 -0.8805005 -0.2861042 0.6992432 -1.3570662 0.46002886 2.587993 1.4763155 1.1980555 1.8010523 -2.9955773 -1.0236673 -1.2144886 2.4571521 -0.05248157 0.4664433 -0.39290324 -2.0194151 -1.4928346 0.9517085 -1.0039849 0.05588303 -1.4202511 -0.98325676 -0.6445139 -0.9176749 1.870123 0.12913492 -0.902669 -0.42837343 1.1337852 0.987112 0.76726747 3.1656148 -2.1229587 3.2942653 0.2870791 -1.2679472 1.7926526 -3.166097 -0.7927838 2.0023234 -0.046482623 -0.50703114 0.0113469 -0.4903449 1.3914282 0.3469497 0.15014243 -0.2117117 -0.56794554 0.30367142 0.1559134 0.6639103 2.1936438 1.6538444 -1.9089909 1.3418374 0.00199985 0.1396611 2.3258674 2.1205163 -1.0714005 0.24585329 -0.09013016 -1.3981677 -1.5325601 1.5547427 -0.8805478 0.07765938 0.5626863 1.5845059 -1.2512172 -1.9513404 -0.15301214 -0.27623266 -1.0285342 -0.64241016 0.760806 -0.25748518 -0.9833654 0.1186417 0.6030901 -0.13829732 1.2161907 -1.4769832 -1.301968 3.5893927 -0.57857406 1.4252316 1.2360059 -1.1703728 1.3482507 -1.5965136 0.8556635 -0.22147119 -3.0885687 0.4435076 1.3274622 -0.50551647 -1.1511827 -0.16340998 3.2470543 0.9029507 -1.9816465 -1.0481714 0.6398666 1.4761086 1.2682716 -0.29279253 1.0612993 0.39081982 1.3897115 0.1793894 0.25950083 -0.258326 0.93261886 -0.17726743 1.8301649 2.8764591 -0.563259 1.7634194 -0.046246182 0.4562651 0.3290306 2.821698 -0.3639933 -1.3731993 0.21569668 -0.008203783 2.078243 1.0877949 -3.0181923 2.6921802 -0.38609415 0.80406016 1.9698662 0.21319948 1.4625498 -0.23530997 -0.5202055 -1.2309844 0.7856435 -1.405788 0.709324 -1.0794526 -0.38664564 0.16233751 0.7846786 0.552347 2.297191 1.7050948 -1.2570677 -0.05094589 -0.0843684 0.16856937
611 1.0149828 1.6820722 2.2485118 -2.3477917 -0.25713444 0.73598623 -1.0965743 -0.51056266 -2.3218486 -1.0165017 -0.5562927 -0.16429205 2.267525 1.815519 -0.46981683 0.65101475 1.660766 -1.4519205 -1.4407794 -1.4548572 0.18786022 -1.1714152 1.9166216 0.38014764 -0.16116476 0.6744011 -1.9963492 0.85473627 0.68647224 0.09106759 1.4429392 -0.5249044 -0.5972546 -0.8047343 -2.8835788 0.35715663 1.717612 -0.97526526 -0.36677063 -0.9454402 -0.80031407 -1.5556087 -0.542032 -2.6020012 -2.0776403 0.13544925 1.2945441 0.90631175 0.32869112 -1.29745 -0.2258414 -1.302907 0.05097523 -3.5705543 -0.34015372 0.15643892 0.015778946 -0.36462763 1.6045343 1.9620634 -1.8347725 -0.17750192 -0.08143644 0.120423324 1.7511919 -1.029142 0.555669 -0.97509116 1.0826772 0.6181788 -2.2087889 -0.91806227 -0.03266988 2.4128559 0.95442647 0.511183 1.8785452 -1.2116022 0.08335746 2.4304218 -3.6459486 -0.7042663 2.171112 -1.2019775 0.7303898 -1.0752727 3.444213 1.0032738 -0.049794316 1.9331954 -0.6121921 -1.2492666 0.30078632 -3.1217322 -0.49302602 -1.2696894 1.0412768 -0.510068 -0.749395 -0.8207157 0.32107458 0.51575035 -0.533141 0.49353006 0.23660634 -0.96926254 3.598903 -0.048045207 -1.1188457 1.7964714 0.057181697 -1.7996056 1.1858642 1.372873 1.8016236 -1.2981937 2.895708 0.6697785 -0.52513254 0.12624311 0.48836523 0.57737553 -0.8407812 0.6903323 1.8258935 -1.58759 1.654015 -1.2115344 -0.8747015 1.3595498 0.44774863 0.13469832 3.1390107 1.2387278 -1.4569441 0.38429788 0.2894277 -4.125186 -1.7392465 -0.42227823 -1.7286844 0.74963063 1.11142 -1.2018805 -0.17562647 1.630953 -2.6537616 2.0149086 -0.6293594 0.043452784 -0.76501226 3.2930882 -0.46098545 0.35307336 -0.22921361 0.47561258 0.6227574 1.6535753 -1.051085 -1.7694572 0.1909608 2.323273 0.92883784 -1.9593915 1.1224056 -0.8445031 -0.73873603 -1.5116452 0.29772392 2.058364 0.19986087 2.1658037 -3.9080133 -0.55422586 1.603967 -0.5348932 -1.8707472 0.105695754 -0.48230368 1.1173 -1.4276055 -0.4483035 -0.8520851 2.5722356 2.9089468 -2.965339 0.8889358 2.3620582 -0.47034246 0.4095909 0.6262338 2.235344 -0.9828381 -0.064757824 -0.61609274 -1.6291513 1.3822645 -1.0963287 0.6864245 -2.0272572 0.10443686 -0.38416654 1.2385335 -0.65698004 0.3606025 0.40202338 -2.2005513 1.0927558 1.0881132 1.283702 -0.45089412 -1.686036 -1.0980829 -0.12224023 -0.21931392 0.61623174 -2.049774 1.6620096 -1.2145549 0.8504554 0.8568243 0.7695662 -0.50561315 -0.049931213 1.019864 0.46247452 3.3952503 -1.2779775 -0.13324253 2.004466 2.8120925 -0.10427244 -0.8057625 -0.6266934 0.40848032 -0.10658985 -0.061658856 1.3682691 1.7752964 0.9271198 1.0166982 0.64888954 3.2510471 0.9320219 -0.6205663 -0.91376853 1.1968695 -1.0514866 -1.885624 -0.6739576 2.1402442 3.5473812 -3.10911 2.0418844 -2.8913243 -0.33159924
1036 2.4771066 0.77658695 -2.2738585 1.3108138 1.0121056 -0.16665864 -0.39833015 1.0617797 -1.9776868 0.0640183 0.2008773 0.37438375 -0.8494124 -0.4366105 -0.18642572 -1.8593618 0.8577921 -0.20935398 -2.00433 0.27684793 -0.81774956 2.194273 0.54845744 0.9677008 0.31945556 -1.3782806 -1.9566594 1.1890277 -3.3910735 -0.91551536 0.81932735 3.101251 1.844865 0.7228705 1.9848046 1.5292393 1.3380914 0.13009036 -0.28268233 -1.437903 -2.6897686 -0.87243545 3.1878617 1.2808373 -0.710729 2.3437386 -2.180933 1.3996944 4.341465 3.2192476 -0.98274356 1.3049071 -0.519088 -2.7349756 -1.462899 0.83351827 0.091394976 -1.5653498 1.3171905 -0.26595226 -0.06356462 1.0093471 0.9573867 -1.4954926 -0.91910326 -0.018588843 0.0061295675 1.9207634 -0.8326585 -0.6954718 2.9784749 -0.63286287 -0.3952823 0.8145336 0.4332241 3.1335053 0.13180915 2.308715 0.9599549 0.45575315 0.26001346 0.4131808 -1.0286719 -0.5832892 1.4579896 1.8140337 -1.2769129 -0.84434825 0.955572 -0.28812298 2.5126686 0.32784015 0.5162894 -1.0087578 1.6482142 -0.8674437 -2.6869962 -0.630603 2.7426498 0.09784029 3.4953926 1.207378 1.0228171 1.7655691 -0.28042567 2.6646242 0.3976792 -0.6821857 -0.03758206 -0.51626325 -0.8063149 -2.1863606 1.1134909 0.48070812 1.1143013 1.033106 0.13621189 -1.0943719 -3.7606091 0.6641473 -1.1801568 -0.53139305 2.086923 -0.57992625 -2.5727 1.4174403 -2.4892929 0.9545947 -2.0359013 2.4637403 -0.4884893 -3.470308 -0.08447315 -0.8845441 -0.33891052 -0.38936028 1.9223078 0.014320548 0.5961679 1.3949608 -0.08784816 0.6958867 -0.085790396 -0.68980575 -0.40822232 -3.6469865 -1.8451483 0.3277837 -0.3247321 -1.9913892 -0.4915055 2.0335572 2.059184 -1.1831726 -1.0601418 -2.9838142 -0.66123265 -1.1950241 -2.010087 2.1252775 0.37023637 -2.618051 0.37843606 -1.4158769 0.81448925 -1.2474312 -1.5245637 -2.2661266 2.2875893 2.9884436 2.7655797 2.6702878 -4.019384 -2.4681883 1.5028436 0.7027808 -1.397321 0.9545577 0.17347364 -2.7000058 -1.1735064 3.4514663 -2.0785582 0.37235624 0.078727946 0.53076595 2.5882316 0.9769568 -1.0844595 0.03793631 0.17520195 -0.872281 1.382771 -3.1563234 -2.5427442 -0.7648312 0.02368725 0.47396222 -1.5396434 1.89451 0.95527315 -3.1091678 1.9634486 0.73109293 -1.2375863 -0.77998316 -0.87677413 0.8394351 1.229992 1.4746532 1.0208439 0.12173256 -0.6793586 -0.8938558 -0.83713853 -0.041473232 -0.26290506 0.89282924 -4.9300795 -0.30814323 0.498247 -1.7558132 -2.2077072 2.0986001 -0.18180995 -1.2709407 0.2866546 -0.3187938 0.75146484 4.5014257 1.9404935 0.5450403 -0.6592211 -1.5149947 0.2609666 1.1192898 2.6938004 -1.2812204 1.2985243 0.12508868 0.9868229 -0.6392058 1.3048015 -1.5016959 1.4246602 0.48551646 -1.1245681 -1.7566998 -2.025815 4.11117 2.4936037 -0.72983295 0.4729327 -1.226804 -2.5547388 -0.73494357
1237 0.6690034 -1.2933184 0.375879 0.8078911 2.0289714 0.8980697 0.7678647 -1.0143913 0.4215462 0.5050647 1.6614653 -0.8514854 -0.5682942 -0.44199836 -1.8995568 0.95433056 0.22518843 -3.744485 0.2770827 -1.278827 0.7140033 -4.12907 -2.1823447 -0.31214523 1.0204711 -1.0917631 -0.45571372 -1.8215009 2.9106038 -0.25497213 -0.22673663 -1.9809159 1.1020188 0.8550167 1.0017464 1.1055353 -1.1560338 1.0095046 -4.1999483 0.015791893 2.1769757 -1.0612121 1.4669821 2.172685 0.80809075 -1.3858126 1.4179893 0.47301406 0.47935382 -1.7742101 0.8101251 2.8968165 -1.9086096 0.5054879 -1.4161723 -2.0209527 0.028535971 -0.18555903 -2.0802283 -0.72688246 1.1441175 0.5577885 1.3678912 2.4431849 -1.0633659 1.0456057 -0.029623458 1.5710453 -0.6594698 1.5975667 -0.41480663 0.21894418 1.2279867 -0.3248672 1.8560143 0.79271406 -0.35371596 0.047246724 -0.1563455 -0.4874032 -0.7918948 -1.5556246 -0.8400197 0.9641371 -1.7533945 2.6197786 0.7684949 -0.29976314 0.4685912 1.4132559 -2.0047636 1.269673 0.6086495 0.557762 2.0181892 -1.5531791 1.5370219 0.41441056 1.4123889 -0.19432448 0.5789154 -2.6062512 0.17715004 -1.6206129 1.8642918 0.0017710009 -0.81341505 -1.5189973 -0.6854672 -2.2077017 0.3218959 1.416871 0.5552107 -1.2578566 -0.21320419 0.81833893 0.019244645 -0.25360587 -0.29224107 1.4833963 1.4285675 -1.6699963 -1.408038 0.6567562 1.5297542 0.5839228 -2.8303733 -2.6416621 0.96059 0.5291198 1.3862997 0.32714802 -1.1946769 -0.6317875 -0.7066947 1.0575205 0.3076811 -0.31540665 -0.4408253 0.12618908 -0.21559823 0.22302498 -2.0828857 -0.11532056 1.2775416 1.3226814 1.2580038 -0.10073613 1.3243626 0.076178014 0.33913878 1.0006267 0.9768831 -1.1335428 -1.382935 0.50953484 0.6396284 0.8187104 -1.0786465 4.0980015 -0.17000261 0.77297735 -0.05069898 0.3816177 -1.6584105 -0.13157345 0.6758726 1.1685296 1.6717842 0.122137554 -1.4795313 -2.4355376 3.5775437 1.6914736 -0.86994565 3.2380505 -0.61520064 0.79563 -1.4018209 -1.4359999 -1.8706285 0.8857283 -2.8145962 -0.74212104 0.9551156 -1.3704093 0.7404721 -0.6738102 1.2469604 -1.519066 2.6836464 1.0390298 1.2686902 -1.3559377 1.9777509 0.78745115 -0.52107126 1.8433359 0.28673625 -0.7336688 1.2032539 -0.8923131 -0.8273966 -0.88945735 0.5600175 -0.7442931 -0.15856925 -0.84199286 -0.49630016 0.40794712 -0.42156622 -1.2077727 1.5684564 1.7912129 0.6997298 -2.174703 1.8336163 -1.598615 3.129187 -1.5724139 0.048338328 2.8697698 0.59146476 -0.5802304 -0.41431454 -4.217175 0.3197521 0.4636041 1.91705 -1.6056615 0.22267263 1.9892899 -0.034875438 -0.29007566 -2.2757652 0.49042404 -1.5608636 -0.32377234 -3.8528035 1.7225528 -0.61738724 -0.29764944 -0.99386764 2.8232143 -0.52208865 1.8050765 0.19198886 3.1020846 -2.388401 1.3043005 -0.37427518 1.1975071 0.44143736 1.6151493 3.4019713 -1.9701103
677 0.16455744 -2.0997717 1.2458023 0.6239261 -0.49090677 -2.6708522 2.3588042 -1.7743059 2.2554233 -2.195624 0.010215172 -1.3725933 0.76101744 0.36962295 1.6692818 0.6495868 -1.3478333 -0.17674477 0.98101884 -2.645068 -1.3149283 0.914776 -1.8480154 2.011608 -2.1874812 -1.2372341 2.3917913 -1.2629691 -0.18391736 0.75590867 0.69407296 1.6777974 -1.7117329 -2.038586 2.5235353 -1.5839049 1.7346683 1.243681 -0.12012744 0.24363354 3.8541136 -0.29247922 -1.653548 -1.068335 -1.789574 -0.55281883 0.86787 -1.1243033 0.3724415 -2.266433 0.63787115 -0.3025977 1.2705576 2.4928725 -0.8814368 -0.02069982 -0.2549755 -0.2008411 -0.15334968 0.7586734 0.9923576 -0.18344092 -0.38965628 -1.7279557 -1.5590152 -1.7890449 -1.6182345 0.78457284 1.0505986 2.099473 -2.3754978 -0.68767464 0.38317734 0.41268334 -0.62980753 -1.3700918 0.69245875 -0.5680946 0.51920784 -2.9703097 -2.1689048 -0.24032477 -1.9537023 2.9405355 -0.2887899 -2.8573818 -1.5951364 -2.233985 0.011415928 -0.9082729 0.13070093 0.83098143 1.3703619 1.0765746 0.5465556 -1.4660363 0.12060425 -0.5203137 -0.68779373 4.4138393 -0.65494335 -1.1608436 1.1049862 0.572792 -0.81541675 -1.3612707 0.085652806 -1.5488995 -0.9931348 -0.12640075 0.393976 0.30952838 2.2302334 -2.4100974 -1.8886527 -0.2488604 1.322083 0.9509742 2.3890965 -0.8456059 -0.14259823 -1.0388509 0.21149878 -0.5788506 -1.3913589 0.9316124 0.58789885 0.25876778 0.20716114 -0.26150337 -0.26199314 2.890365 2.0959692 2.004751 -0.44219387 -0.16255514 -2.7890823 1.709552 -0.4672932 -0.3424629 1.0976622 2.918859 -2.2117062 0.40806174 -2.3634226 0.32450885 -0.95932204 -3.3592138 -1.5911084 -1.3050791 -1.1928276 -1.4706936 -1.5801065 0.70369494 -1.8435432 1.4053895 2.4212255 0.86344427 1.0394385 -0.6706877 -1.1932847 0.24664344 0.007733771 -1.4915581 0.4035325 0.18425739 0.07588789 0.37802178 0.9518509 1.0705354 2.174288 -3.310895 1.6894809 2.530828 -1.6702855 2.4155636 0.23464042 0.6785746 0.98572993 -0.23893303 -1.7633324 0.55278784 -2.7262037 0.102417566 -0.32992533 0.49898928 -0.37106892 -0.50121915 -1.8749375 -1.0720036 -0.16111436 2.2779212 -0.117349155 3.081139 -2.716406 3.3211324 -0.4160282 0.9640802 1.8913935 -0.21286926 -3.5243168 -0.33093062 -1.671978 1.0041838 -1.2094636 -1.3079644 -0.51363814 -1.9362717 -2.0845852 -0.29090533 -0.57801795 -0.5773957 2.7045736 -0.6585635 0.36106145 0.34926024 -0.25696388 1.7817968 1.0258338 -2.422742 1.1386399 -0.15035152 -1.0500515 2.0683131 0.079883136 0.17879781 -3.7952104 1.1443517 2.8381207 0.47362778 -0.27813536 2.0185816 -0.7789724 2.4409454 -0.5916381 -0.44298774 0.41257963 -1.9565485 0.72248423 -1.7818153 1.8404769 0.62370855 -2.9816437 -1.3765103 -1.6603972 0.5567985 0.46831694 2.570705 0.7291074 3.4826643 -0.44435233 1.1054392 -0.38408083 -0.20370513 3.2369237 -0.07913179
463 -0.68879706 0.8708019 -1.2823789 1.0858828 -0.7647612 0.3717999 1.6702175 1.6207213 0.23946476 -0.38789114 1.2175303 0.6167865 0.26277858 2.0628402 1.989846 1.1712182 1.3354172 1.4269431 -1.9753498 -0.7358253 -0.37266347 0.57848 0.59327275 0.9382052 1.2085655 -1.107946 -3.2197652 2.8598495 0.19162162 -0.6633047 -1.8105825 1.6817952 0.77678114 0.19977976 0.8347221 -0.24937494 -1.1249781 -0.29763052 0.6433274 -0.85740596 -1.726917 1.8590078 1.8531607 0.6873919 -0.6508251 -0.3854175 0.30945557 2.1754856 3.1418498 0.6505667 -1.5818356 1.0523812 -0.26284543 -2.4877326 0.7479705 0.025702268 -1.6692293 -1.279647 2.7239332 -0.45890516 -2.0328226 0.8686108 -0.88201207 1.6510371 1.8146363 -0.4813804 2.1496706 3.3627384 -1.0277549 0.14568107 2.3856778 -1.852104 1.2112825 -1.1955781 -1.7272493 4.157332 1.4467199 1.9163537 1.0581993 1.9782873 0.09885628 -0.76882017 -1.3265611 -0.96660334 0.24199295 1.4857388 -2.0810373 0.06396545 -1.7043923 0.3912638 0.28781742 0.6399337 -1.5745623 -1.6644111 0.34405223 -1.5364035 -1.282353 -3.2796094 -1.4408025 1.620518 1.2245157 0.7098507 0.07979369 2.008442 1.9721271 2.585102 -0.1233158 -0.2161705 0.85221744 0.752525 -2.7767324 -0.8310779 -0.5009031 1.3553723 0.57261676 -0.8118958 -0.1576233 1.3349462 -2.0423117 1.1715661 0.44636565 0.91590184 0.43149993 1.1452078 -1.9671795 1.0349377 0.002011767 1.5957476 -3.752098 -0.89321244 0.30562657 -0.78618926 0.21395092 0.14440635 -0.20940378 -0.0012652007 -0.021529192 -0.26251167 -0.63823754 0.25510547 0.15879326 1.1152511 1.4059011 -0.7762353 -1.1736243 0.5448403 -4.4717274 1.4250815 -1.7353965 0.94056857 2.5795877 0.38807985 0.6305808 -1.7918601 2.141868 -0.9101473 -1.8835633 1.5318965 -2.930037 1.1121131 -0.08769685 -2.1035974 2.27031 -1.2294301 2.0348046 -0.029984841 -3.0782905 -0.83630794 -0.4856409 1.2480218 2.580106 2.7793655 -1.3834717 -0.654826 0.33119306 -0.64330566 1.6818607 -0.4850555 2.105749 -1.208062 0.7194489 3.191358 1.396228 -0.5509724 -0.90508384 -1.2445326 2.9968255 2.1798458 0.53076446 -1.522206 0.28702974 -1.1139826 -0.929934 0.7969478 -1.6956288 1.5206982 0.27583888 -0.8703312 -0.6511986 5.3678856 0.9293009 -1.1149615 1.8692476 -1.8561399 -0.0808947 -0.79866475 -0.24767084 1.4784425 0.9035895 0.98847497 1.0712371 0.3305405 0.009316788 0.8426447 -0.8623946 0.2009948 -1.1818097 1.7075543 -2.0945284 0.20691098 0.37563956 -0.16779035 -0.9955503 -1.2408904 -1.0526329 -0.7238802 3.57678 -0.6965258 -1.6526288 1.6951542 -0.004994583 -1.3209397 3.0673165 -2.0982554 1.6471226 1.5280238 3.069057 1.4555167 -1.0392171 1.5182483 -1.4133707 -0.82753485 4.528179 -2.2018986 -0.38036624 -0.9792232 -0.8435308 -0.21158677 0.303222 2.0511963 -0.2726983 0.16916558 -0.14411505 -0.15789817 -1.5478095 -0.67830074
417 -0.23821639 0.105474584 -1.3604944 0.51597095 -0.77899224 -1.4690353 -2.5113668 -4.7785907 1.6083959 0.29107082 -0.024389636 -0.5149124 -0.034423053 -0.43525746 2.6806998 0.62365973 -3.814206 -0.1126005 0.4432474 -2.533451 0.56671333 2.6463437 -1.1781628 1.1297294 -0.46835083 -0.539774 1.1586041 -2.7172413 -2.552023e-05 0.7236893 1.532051 0.44538316 -0.557581 -2.3904727 0.56930685 -1.1877092 -0.0103060985 2.3107247 0.8809666 -0.94767404 -0.251122 2.9644082 0.45076585 1.0931374 -0.8574535 -0.46440503 -0.66493225 -1.0762552 -0.8140548 -1.3059087 1.2314852 2.0423243 0.8203539 1.0947895 -1.0617034 1.4010305 1.4361778 1.1430175 -1.118715 -1.7506224 0.17452274 -0.3163455 1.8301419 -1.2812345 -0.84618884 -2.1408842 -0.87437123 -1.2158629 2.8725133 1.9857689 -2.8282502 2.188131 -2.3041213 1.6664171 -0.8786779 -0.890111 -0.8252436 -1.5390185 -0.7495049 -4.4224043 -2.0092895 2.44748 2.2636166 2.4778957 -1.9989169 -0.27642304 3.3688753 0.5018192 1.1946101 0.8935954 -1.825237 -1.4685081 -0.59075344 -0.7161902 0.016171971 0.470905 1.3272266 0.04682164 -2.8420303 1.3153484 -0.13692513 -2.1649883 1.1205672 0.3489455 -0.28355053 0.41128343 -0.13625474 -2.1270921 -2.268196 -0.24711469 -1.0820754 0.21726081 0.1491067 -1.5506998 -0.613414 -1.3681536 -1.3471322 -1.0490019 2.9699464 -1.9011309 0.69956166 -1.2578979 0.57158715 2.612121 0.9253319 1.6928624 -1.3731917 0.24021135 -1.0538563 -0.2864679 -0.7600099 2.481922 1.5475115 1.705107 -1.471792 2.1745846 0.20017219 -0.7366154 -1.6083463 0.83041364 1.2326387 1.7813927 0.12160334 0.42494753 -1.6498193 -0.24016282 2.832884 1.2593192 1.8022151 -3.0920885 -0.7377187 0.66550326 0.49611178 1.1417091 -0.36749548 -0.40784976 1.7693635 1.1368091 3.172247 1.6960887 -0.808805 -0.69981486 0.31155053 -4.213216 1.1701244 0.86356467 0.2258325 0.7237004 2.1775806 -0.2948055 1.6977874 -2.119129 -0.577011 2.9499118 0.96318024 1.4848813 0.5145431 -0.49390632 -1.0177952 -2.3286338 -2.4250574 3.246532 -0.7619944 1.6632214 0.2699737 0.6731076 1.6037318 0.5567837 -2.136736 -0.34089148 -1.1938992 2.0144415 -0.7294562 0.9684317 -2.6539853 2.3380213 -0.1554812 0.48596245 1.8577543 0.8991384 -1.7066722 0.8359166 -0.8647526 -0.5501753 -2.8653688 0.4834242 0.49828538 0.24538302 -1.2665654 -1.062668 -0.55774295 0.6689806 0.48563984 2.8355982 1.906198 -1.3282919 0.43590444 0.6371086 0.44352025 -1.7049214 3.205545 0.044820026 -0.75910133 0.415159 -2.0717926 1.126451 -2.824436 -0.080062725 3.6073775 -1.5167484 -3.2283595 0.46385393 0.80161774 3.4766285 -0.9806944 0.3904511 -1.6002039 0.3943149 0.34461734 -0.80304444 1.6222858 0.99460137 -1.448971 -1.7487409 -2.666449 0.012751853 1.9454931 2.2351604 0.66368866 0.68391556 1.3361542 -1.2969745 -0.22012599 -0.14025639 2.250792 -0.2786776
637 1.0678184 -0.29928333 -2.000224 -0.07967285 -1.6734095 0.4778293 3.093164 2.2616842 -0.4227394 2.699448 -1.3147116 0.17332323 -0.09122198 -0.45225915 0.8112464 0.08402634 2.3469732 1.9028467 -0.060445506 -1.4119608 2.154453 1.6051707 -0.014327502 1.3079047 1.0152934 0.95947564 -1.3843977 -0.56539375 -0.099185966 0.27578187 2.5461879 0.24458529 0.31192917 -1.7790914 -0.1911379 0.023288611 -1.2580236 -0.53271306 -0.341873 -0.3952993 0.70006776 1.4318755 -1.2044004 -0.16864513 0.2944752 0.3402294 -1.2104475 0.16142094 2.3173978 3.9957793 -0.19034263 -0.9495292 1.020351 -2.146088 -1.607101 -0.39523804 -1.4218875 2.624707 2.446137 -1.628527 0.24911824 -0.049557835 -1.220421 0.58551097 -0.19049415 -0.25800857 0.96032065 1.7533731 0.67536116 -3.3281634 -0.6926977 -0.050605018 -1.4151635 -0.76541275 2.056588 0.41492137 -0.37301692 2.604166 -2.054308 0.011118855 3.2510886 1.0669328 0.14416355 0.88345104 1.3004885 0.05899465 -1.3090037 0.73257655 0.6128458 0.15462619 -0.5467637 0.53537583 -0.47394118 -0.22873995 -4.339084 -0.58420944 2.7068734 -0.015772631 2.213249 -1.0068233 2.6357417 2.7226279 -1.079893 -0.027117163 -1.3137566 -0.46313685 -0.6751156 0.5718182 2.5050693 2.5678709 -0.25636423 -0.25881302 1.0613518 2.4094322 2.5709157 0.0238482 0.014886209 0.65162253 -3.6693385 -1.1559898 0.13251975 1.4890778 -0.49644148 -0.12071445 -1.2626823 0.08899608 -0.17987223 0.6877028 -2.6364238 -1.5358583 -3.3314955 -2.5672712 -2.8999605 -1.6903243 -1.3654888 -1.5818621 -0.6221271 -1.2412745 0.019607412 1.1878339 0.73852104 -3.5799296 1.7900966 -1.2000962 0.069043085 -1.4846843 -0.9776418 -0.7362627 -1.6590006 -0.37517565 -0.18003759 -1.7448088 -0.837654 0.98277605 -0.5593305 -1.1928958 -0.2995269 0.71969974 2.13638 -2.018131 2.0928152 -0.66581935 -2.1319213 1.8932757 0.35967013 0.7878932 -0.091397606 -4.361175 -2.0743444 2.0168085 -1.673177 3.3224287 -0.568602 -2.1418328 0.33277673 -1.799168 -0.35081986 2.0560484 -2.3369727 3.5484343 0.58817255 1.1802951 1.9625456 0.9245386 -1.8080206 -1.5454428 0.9504934 -2.4742944 -0.44422728 -1.0100799 1.0830078 1.763879 -0.09502553 -1.7521489 0.7322681 -1.9190913 1.5616262 1.0271068 3.1465156 0.53675014 1.0389149 0.7761962 -0.14806978 2.443995 0.17526403 0.30294186 1.3194368 2.984973 -1.3470362 0.5710487 -2.193898 -0.72179747 1.6406356 1.6280144 0.537326 -1.3315519 -0.25024697 -0.0048977304 -1.2455369 1.2661374 -2.7670486 0.84930855 0.7185319 2.3642633 -1.8493254 0.9941892 0.6265313 -1.937325 -0.6995619 2.8591313 3.2928457 0.6525061 -2.1774852 -2.2711487 0.88114387 0.74875265 0.19219771 1.5992321 2.9987357 -0.93855363 -1.9964898 -2.6366737 0.1685906 -0.562316 0.6233008 -2.697755 -1.1627847 2.5535305 1.602738 -0.70757204 0.7588806 -1.6454777 -2.907698 0.77682394 -0.4304825 0.5631292
1216 -1.0603702 -0.042500854 0.8673448 0.1020214 -1.2023095 0.32545397 0.94574916 0.7896913 -2.2254252 0.20666178 -0.25646657 -2.1373115 0.8748637 -1.0846696 -2.2458737 0.1416532 -0.7105357 0.89245945 -0.7506295 -1.04003 -3.1068091 0.28900477 1.1278712 0.088681035 1.0821464 1.2770104 -0.35832155 1.9716977 1.04745 1.1856432 -1.2383245 -0.794898 1.4564246 0.05632995 -0.004034564 -0.28788906 1.6407359 -2.6560671 1.4511418 -1.0794427 -0.4790124 2.379349 -3.4506476 0.01069986 1.093338 3.019694 0.68975943 0.8978875 -2.6506593 0.05193774 0.9252495 -0.6371966 -0.1300397 1.1182985 -1.6760299 -0.37255818 -0.83744466 -2.2172005 1.9930638 -0.011606095 -0.1812503 -1.5325574 -0.882453 1.907087 1.6382446 -1.5177478 1.052561 1.6542867 -2.4766572 -1.2911879 3.9070702 0.7074858 0.6783784 -1.42256 1.76514 0.73615104 1.1197113 -0.034517936 -0.81625456 -0.41450888 3.2725534 0.17355347 3.6576145 -2.1779249 -0.13216802 -1.5447775 -0.25354037 0.30226514 -3.7342293 -0.8288845 0.39440718 -0.1056828 -0.9053129 -0.2715969 -2.294416 -0.42151505 1.631337 0.62184227 -2.0363462 -1.4159756 1.2070149 0.049706485 -3.3884065 1.3487544 0.27900955 -2.4790146 -3.8830924 -0.27103448 -0.1358862 -0.046814695 0.65921515 0.559922 -0.14998938 -0.5381819 -0.41626227 0.19521196 -1.1062928 -1.2598026 -3.398705 0.12176771 -1.0479 0.93830186 1.144769 -2.1009948 -2.4239292 -1.2579285 -0.21882245 2.4555147 -1.1301693 -2.216805 -0.65549076 1.2067531 1.0859681 0.7443646 -2.9486454 0.7603522 -0.863092 1.2454879 -1.8428797 -0.60344416 -0.109629765 -2.98125 0.15911743 1.9603862 0.42382476 -1.6030288 -1.4670416 2.2367887 -0.7412034 1.048001 -1.8825014 1.6203564 0.86524004 -1.0194166 3.4642193 -0.029069182 -0.9180024 -0.65485984 -1.2265369 -2.9938602 0.74345917 2.864931 1.6146686 1.4796659 1.7220914 -1.3313519 0.09079538 -0.42660013 -1.6473517 0.4745259 -2.0746958 0.78812426 0.43037868 0.70980304 0.34480056 0.44272822 -2.416092 1.9070184 0.20516445 0.50501394 2.23022 -2.678193 0.6861254 0.7968788 0.7413269 -1.9656601 -2.4813297 -1.8374966 1.5598903 -1.0919225 3.222204 -2.6403677 -0.10744073 -2.5639462 0.84964234 -0.09700169 -0.4521598 0.85486627 -0.8425179 -0.73201215 0.09723673 -0.9091579 -1.1541562 0.023540908 -1.4534793 0.30534005 -0.60794187 1.5873213 -2.6064608 -0.075286575 -1.1856035 -0.207752 -0.17198727 1.316811 -0.36082372 2.7893467 0.68902504 1.5558054 -0.93626475 -1.3488202 0.64217657 -0.16493453 0.4504443 2.1583169 0.615143 -0.4288752 -2.5086763 -2.2976913 -3.3498762 2.072046 0.28075358 3.2474306 3.3707728 -1.291036 1.0196742 0.9060099 -1.0086256 -0.04349765 -1.1678 1.1868564 0.2465357 1.1831102 1.0118978 0.07881914 0.86783516 -1.493335 -0.975487 -1.2285781 -2.0890906 -0.06363547 0.0026044438 -4.2934413 -0.9909694 -2.2985282 -0.7737931 0.5638402
612 -0.81544477 -0.5623092 0.007190876 1.9750026 0.5938891 0.38072085 -0.59847105 -0.54965925 -2.5691502 -1.8567659 0.3054709 2.1072438 1.0339099 3.3206582 -1.8360343 -0.627841 2.2928724 0.103845164 -1.3629777 1.5865331 0.5470093 0.64231694 2.3124232 -0.8775294 0.31295484 1.6271333 -0.55058897 1.5733538 -1.9505191 -1.5261647 -2.2133582 -1.1753426 0.40522084 0.30730703 -0.25770137 -0.4694211 0.60737985 -1.8280799 1.4886805 -2.891652 -2.4824188 -0.7651006 1.3906695 0.61610866 0.99245703 1.5532378 -0.8956172 1.6023229 1.0291481 0.87701535 -3.7092943 0.28291845 -0.2936234 -5.5445995 2.0112662 0.51817274 -2.5408607 -0.05508425 3.1142688 -1.0327355 -1.0152019 1.6551127 -2.7846498 0.15738736 1.486716 2.275223 2.5918179 1.0235441 -0.4390859 0.9603094 -0.25681755 -0.7015753 -1.2029989 0.88777345 -2.1498482 1.370445 0.35067758 -0.0021466683 3.3094344 2.9375942 -1.1763225 1.2435904 -0.07596441 -0.46844065 1.4766077 -0.71731895 0.8741919 -0.34041408 0.5179677 2.6852372 0.2407737 -0.8163204 1.7339936 1.1559794 -0.2936224 0.010193057 -1.8938845 -0.21975122 1.0324049 0.2563043 -2.357025 0.7565395 -0.6795654 0.9091697 0.3562984 -1.5300443 0.50121284 -1.5790007 2.06188 2.3337317 -0.4815705 0.95121086 1.2860725 1.8806349 -1.0370054 -0.12773298 0.88645595 1.1750907 -2.8667674 0.5200521 1.2532954 -0.0768942 -1.5836527 -1.0652119 -0.562527 -0.72811687 0.2133025 -0.0027057065 -0.8928383 1.0973241 -0.7839393 -1.0736084 -0.17896509 1.8285978 0.5219942 0.5056921 0.872299 -0.30326813 -0.7626135 -0.5619513 1.9900953 0.014767791 1.4704744 1.2662786 -3.1409824 1.6314818 -0.58946764 -1.2006214 -1.1479837 -0.06631196 0.5889413 -0.9260561 -0.89963037 -0.3887794 0.29693675 1.584043 -2.308929 0.13912253 -1.6817368 -0.865212 0.6131864 1.57464 2.5080993 -0.7647255 -0.8612092 1.4403484 0.43835732 -1.6210238 -0.41808206 -0.355832 -1.7807149 0.82820714 -3.1916945 -0.6949408 2.6192462 1.3244658 -0.41458935 -0.020083403 -2.350989 -0.75413275 -0.70962733 -0.91237146 -0.046893552 -0.99243194 0.36271286 0.756495 1.2946782 2.9979787 -0.6928707 -1.3719116 1.0224501 0.72600824 1.0887269 2.2291317 -0.42601928 1.4999154 -2.3601866 1.5854536 -0.8668868 -0.10835204 0.1363377 1.0549314 2.031488 -0.3839958 1.8531615 0.4330023 -0.87203544 2.4885745 2.1926992 2.7857206 -1.2289518 0.5898574 2.0872052 -0.9272973 0.47630534 2.2730374 0.27458107 -0.23507005 0.41031608 0.43161574 -0.87093747 1.1812396 0.22308937 0.8554474 -0.17907971 0.8768319 1.6634164 -0.05343137 -2.7633524 -0.9404827 0.6547912 0.66578144 -1.1154693 -1.9340023 2.0565932 1.6265405 0.2055254 0.1788641 -0.5790277 0.18046059 0.14171498 -0.46933293 4.503302 -4.736903 -2.1556377 -1.9975648 -0.08089336 -0.40993923 0.8599697 0.42765412 -2.082052 -0.4517423 -0.72067803 0.15299793 -1.8647469 0.5129284
669 -0.1826713 -1.8523211 1.02467 -0.1265779 0.48549867 -0.38384053 -2.9535697 -3.030515 0.42940342 0.8429384 1.6383733 -0.7370718 -0.6541909 -1.2192844 1.6579834 -0.77968746 -1.4216889 0.497423 2.3697612 -1.215357 1.3974574 0.7916024 -0.17966257 -0.6798918 -1.6859803 -0.3024247 1.4667761 1.2811388 3.230135 1.6881005 1.5951997 1.9606135 0.9187135 -0.9915414 -0.15187195 0.15527026 0.0027298508 0.12360453 2.0048804 0.56273043 1.3193817 -0.56969845 2.2975132 1.8849825 -0.14589006 -1.7785847 -1.6204231 0.8707555 -0.9746244 -3.043925 -1.2699193 1.0229949 0.13721532 0.3205432 0.07949139 1.0228267 1.6700037 1.6912906 0.002169108 -2.1590369 1.0180366 -0.7378641 -0.6947594 -1.3890741 -2.0458338 0.13736102 -1.3581073 -3.2212532 -0.09702965 1.5392313 -0.7443947 0.15367481 -3.0578306 1.450719 -0.63665456 -0.8678044 -1.0590583 -0.14141032 -2.5970907 -1.4655963 -2.308577 1.6352235 0.88066304 0.726301 -1.4392565 -0.456307 2.2613358 -0.21216406 1.7487043 1.3002402 0.7249668 -1.7865616 -1.8707473 -0.96719486 -0.98895043 -0.30636004 -0.297622 0.27760813 -2.1325686 -0.5439889 -2.503334 -1.9914532 1.1136204 -0.42948544 0.1488019 3.2157784 -0.0437382 -2.3142204 -1.0165915 -1.8508956 -0.5549239 -0.23365918 -0.43907377 -1.8178345 0.66808856 0.5400103 -0.54695415 -1.606282 0.65581334 -2.2893739 2.4310899 0.7779739 1.2681859 -1.054981 2.2477753 1.3700001 -2.1058643 -0.8209712 0.24676323 0.495124 0.43635884 0.7364807 0.5287802 0.5012207 -1.4929498 1.4652454 0.15340717 0.4295146 -2.4683383 2.3574016 -0.47984692 1.4056221 0.86106527 0.3543561 2.1848612 -1.6545691 4.318316 0.40414247 3.4160178 -2.1970317 1.0652691 0.19708431 1.5345253 2.7200758 -1.2647043 -1.5054555 2.8884132 0.59052867 3.1642613 1.5756603 -1.2205209 -2.4198287 0.7236977 0.86101276 2.1976388 -0.27029154 1.9987671 3.0906155 -0.04499766 -1.3944684 2.2563658 -1.3281121 0.30099213 3.3935604 0.39658305 -0.011166272 1.3464544 -1.3516632 -0.54146516 -0.47330487 -0.6424936 3.5434313 -2.2887077 -0.48078895 -0.6741722 1.3699818 -1.09716 -2.704278 0.6860667 1.9283361 2.0646834 0.6516687 -2.6597233 1.1162413 -0.8710893 2.2143114 1.7616665 0.8498518 0.037462916 1.7333082 -0.075930886 0.7654877 -0.62019485 0.51052785 -0.20828345 -0.12409104 2.0939598 -0.4827222 0.046180625 -1.847285 -0.39541414 -1.3980268 2.8670387 0.3519969 1.5812508 1.3014104 3.0315053 -0.7384726 2.0169964 -1.4097948 1.1124529 0.84291834 -2.1172483 -1.1600797 -1.2309717 -1.126412 -1.6226114 0.036775254 2.8747337 -0.6208725 -1.9874064 -2.0709333 1.657096 3.3088117 -2.2593496 0.7846339 -0.48145303 -2.256206 -3.3433044 -0.8927982 1.61492 -2.3224518 -0.52082455 -1.6439189 -2.0295498 1.0218356 1.8848011 3.0992022 2.2710686 -0.72554475 -0.7349454 0.75743055 -1.3288931 -1.3012397 2.7370503 -0.31555766
364 1.1234705 -2.149408 3.5155299 -4.0024753 0.46090284 1.6953387 0.831872 -1.5462538 1.0958128 2.058242 -0.45587388 -0.78889126 -0.98063934 -0.51817286 -1.8428943 0.65283424 -0.74860626 2.524015 0.7639998 0.06546615 0.59321845 0.53885615 -1.0250622 -0.7561999 0.8109351 0.2927447 -1.4397986 0.0441561 0.39971095 -1.4004718 -1.3786377 0.520386 1.4734716 0.100241914 -2.4155614 1.5926908 -1.1507554 -1.8378252 1.1822413 -1.349043 -0.09102473 -0.6261578 -1.6063335 0.50789183 1.2040524 0.7592059 -1.3845992 2.5002568 -4.9698443 -2.360017 0.42990538 -2.0783575 1.6698202 -0.36751437 -0.58270484 -1.6702181 -2.0056415 -0.9969682 2.2388327 -0.004829531 3.7583375 -0.91903794 -0.116350226 1.3245544 -0.9510632 -0.29377124 3.083354 -0.44074383 -1.541863 -0.0050218077 -1.1872814 0.41954148 1.1137913 -0.6271419 0.1765259 -1.4791862 2.1177742 0.8684936 -0.58261967 1.676526 1.0981315 1.0276438 0.82077104 -0.69085526 -1.0341359 0.39676684 -1.6465579 -1.160411 -3.6879435 -1.9019536 1.3004185 -0.7686264 -1.6118157 -0.23714957 -1.6758974 -0.66022676 1.6744635 1.472673 0.25108507 -0.83143234 -1.6666983 -0.75114346 0.58851147 1.7418729 2.6721647 -1.249216 -0.87219834 -1.4682183 -1.9642007 2.9264474 -1.2869239 0.4043228 2.5066302 2.405515 -0.39680925 -1.6501374 0.104778476 -0.037477423 -2.4455879 -0.41123316 -2.310893 -1.523153 1.153191 -0.7889792 -0.21477467 2.4237976 -2.6615722 -0.26271188 -1.5845764 -2.1691456 -1.3852793 -0.42880392 -2.602605 -2.1944234 2.0733094 0.5540396 -0.1009322 -2.5560534 -0.8004014 -0.273608 -0.8470045 -1.0809395 -0.577206 1.6472043 -0.25594443 -1.5359491 -1.9095491 2.8134925 -2.7352319 0.22552124 -1.0814644 -0.36126444 0.9994887 -1.1666076 0.35493413 1.1233994 1.9903016 -0.51134187 -2.6282587 -0.30661476 1.1632887 0.8257112 -1.5511624 0.03715106 -1.135102 -1.5234253 0.15337516 -1.131666 -2.761939 2.0529268 -1.8247155 2.5081944 -1.9065948 -1.8794351 0.22450037 -0.09831084 -0.31107548 0.25358513 -1.7069865 3.9037924 2.6413343 -2.22701 0.1636023 -3.7553594 0.5367074 -1.5116045 -0.6108282 -1.8933302 0.49871767 1.1494719 0.53701913 -1.2758234 -1.2425119 -3.0404692 2.762286 -1.940652 -1.4535483 -2.0673182 -0.092195444 -1.5887111 1.5495956 -0.81718224 -1.2192886 -1.8832146 -2.7137544 -0.5497716 -0.5951586 1.0065765 -2.8649116 0.1675108 -1.03808 -0.63936204 0.70330703 0.46977782 -1.0712165 1.7732792 1.5180792 -0.4388263 -1.7087512 0.91895735 -0.32515475 -1.4534887 0.2992731 1.0327635 0.32069507 0.22444868 -1.4194561 -1.5577538 -2.3236732 1.1098783 1.4229323 -1.6993394 2.1698108 -0.5920046 0.48189875 -0.3526124 0.8658952 1.2253493 2.5091584 2.0177634 -0.23036076 3.340974 -0.8318682 -1.6629844 0.8507443 -0.16479214 -2.7979019 -0.42040446 0.9994562 -0.83445716 -0.6993524 -1.0905468 -1.3780875 1.7207841 -2.423712 0.0013987563
283 0.010152449 -0.4607254 0.6959362 -3.6053576 -1.7333329 0.45288938 -1.2281358 1.1806751 -1.6532205 1.4752195 1.6034172 0.41633335 1.8550707 1.3580723 -1.7758125 0.31074932 2.7970355 1.499565 -1.7971693 -0.87418884 0.44338545 -1.1187179 -0.08303332 2.5780303 0.21196422 0.5108292 -2.1845305 0.5673845 -0.5751827 0.38425994 1.3548034 -1.4436768 -0.16150615 2.020452 -1.599071 1.054146 -0.26844513 -2.1252735 -2.5250313 -0.32990494 0.26416388 2.5928233 -0.1255828 -1.1527951 -0.7308621 0.44112954 0.021695841 1.3989395 0.7681973 0.44364506 0.8257962 0.9958042 -0.20067218 -2.4587243 0.88410217 1.7729828 -2.4808128 -1.6150734 2.022265 -1.3625338 -2.0320897 3.0198066 -0.5989401 -0.83768916 0.81267464 -0.7099394 2.6723971 -1.928055 0.8341929 -1.7976663 -2.569059 -0.24215117 0.81113243 -0.17254388 0.6917586 -0.6793433 1.0789504 -1.5156071 -1.2965204 0.99728775 -3.5644379 2.0387836 -2.0833683 -1.1942394 -0.05198464 -0.5193998 -1.3650743 -0.8411886 0.78966194 0.7356816 1.3001397 4.317001 -1.0669792 -0.028945513 3.3757524 1.2794958 -0.3262423 0.7514341 -0.82930064 -2.2645063 1.2841467 -0.22990575 1.5203784 -0.1658095 0.20813413 -0.5373231 2.7498474 1.1585219 1.140609 1.7094162 -1.4547297 -1.4249429 -1.4749596 1.755253 1.822141 0.13368073 1.5503771 -1.6209464 -1.4919183 -0.2758755 0.064696506 -1.1826347 0.4477147 1.2764034 -1.4565393 -0.16888805 0.900807 0.32191527 -0.7885204 1.0015529 0.56490374 1.1300532 1.3892933 3.9769123 -0.2607552 2.5774312 1.9382278 -1.4969219 0.85728973 -0.887319 -0.28735244 1.766217 0.774087 -1.8192582 -0.34525773 0.64955 -0.2819741 -0.43700543 0.88292104 -0.14713782 -1.2148147 -1.5680937 -0.33891445 -2.1864977 3.5346503 1.7476352 -2.7231765 0.9473482 1.0493114 -1.1114508 -0.24207902 2.2091508 -0.07420048 -1.6181536 1.3914784 -0.74696773 -3.4992232 1.7770396 0.49252355 0.6909657 1.1193362 1.7826219 -0.40128857 -2.9244514 0.6180217 -0.21700235 -1.338025 0.15601006 -0.8067841 0.20148292 -1.4676465 -0.7059332 -0.04708362 0.748383 2.1266978 -1.9428617 -0.4737031 1.5387452 -0.7764949 0.5955179 1.6991893 -1.062849 0.047603045 -3.208429 -1.3380347 -0.9944867 -2.1499014 -1.3127149 -1.060355 -0.33309183 -2.074923 1.2647804 1.2628183 0.19102389 0.19182119 -0.26740015 -0.9447335 2.3212683 0.58831984 -0.4637894 1.2543594 -1.3291317 0.5676389 -1.0289223 0.35627592 -0.9341572 -1.707017 -1.6282411 0.60470873 2.1166148 0.7134104 0.07343633 -0.26140615 -0.066071905 1.4634676 0.94543165 0.8841194 -3.1640384 0.91855055 -1.2462205 0.37952822 1.7854797 -0.41920146 0.6160803 1.8883705 -1.1205274 3.3179133 1.8509667 -0.042302284 1.4789023 2.232414 -2.336851 1.1100965 -0.4575265 -0.367553 -1.6346381 0.94689333 1.8709943 -1.7630367 -0.40251836 2.7900527 1.7754772 -2.1618004 1.175565 -2.14852 1.3419122
1295 -2.6198373 3.02568 2.0657954 -1.5957808 3.6506855 1.1429116 -0.58302337 0.39121172 -2.3161654 1.3416617 0.27940017 -1.5551208 -0.19788402 0.346593 -3.842212 0.21593474 -0.65324956 1.8767686 0.953642 -2.9318395 0.65016514 2.2856965 1.517291 0.062168777 -0.8615797 -0.2972531 -0.5407522 1.0880598 0.89286214 0.5054809 -1.0935146 2.6654973 1.5970311 1.2484782 -1.100219 -0.22296068 -1.7664939 -0.6436968 0.7803781 -1.3694265 -0.07093965 0.15153958 -2.1895337 0.11099956 1.6256717 0.725422 -0.8862214 3.2976844 -0.6377154 -1.2895478 0.47288617 -2.5187857 2.44482 -0.3367443 -1.7491419 -1.885745 -0.4910572 -1.2739971 1.701761 -0.98651 0.9947177 -0.6171755 1.2136085 0.884253 -1.9977835 -1.4989184 0.1615625 0.60488975 1.6291198 2.010854 -0.09133508 -0.811615 -0.2116652 -2.3199809 -2.1097589 -0.43976298 0.92170566 -2.2300518 -1.496937 1.2282592 1.8603823 1.7808981 1.6999879 -0.6491074 0.67992914 -0.20385092 -2.3483207 0.019232986 -2.0900648 -0.23745877 0.23113436 -0.01845486 -0.57884777 1.3251884 -0.7006751 -0.76199037 -1.527567 1.4825076 -0.6202019 -1.1470169 -1.4633849 -0.18601556 -0.216171 0.67077094 1.2762929 -1.5765914 -1.1347185 -0.8603215 -0.20726302 1.6734872 -0.38273126 -0.7866413 1.5859143 2.3964748 -0.6451664 0.8401569 0.789166 -0.8876698 -1.0140699 0.8517162 -0.80541646 0.20992546 0.20669284 -1.952919 2.5762396 0.55823404 -1.007245 -1.4693309 -0.8921963 -1.3690661 -3.0818508 -1.6850886 0.95750344 -1.816294 1.497402 -0.4191197 1.5780567 -1.5134063 1.3647636 0.18786652 -1.2605981 -2.0200126 0.84614456 2.134361 -0.9123075 -3.4259267 -2.6662326 0.52179456 -3.535368 -1.5339892 -0.31713527 1.4121836 -0.5311404 0.66886014 -0.5537519 0.25747076 2.2388163 -0.35115305 -1.514647 -2.7031944 0.724656 1.3734442 0.30694708 1.260507 -1.2215714 -1.3168876 0.29674572 0.16370973 -3.5370698 3.8575356 -0.6596579 1.7297206 1.9986162 -2.9823868 0.44439468 0.25197417 -0.07022526 -0.34398785 -0.43173462 3.730986 1.6757634 0.829251 0.9044114 -2.6250222 -1.0698293 -0.6367856 0.93026406 -2.042314 0.7242706 -0.25829452 2.8362958 -3.0757773 0.093520045 -0.15966684 1.3927795 0.31559512 -2.450767 -0.95069116 -0.09860971 -2.161359 2.147108 2.9203677 0.1127527 0.31687012 -1.1862118 -1.0199995 -1.4724379 2.3329003 -2.6250496 1.1665162 -0.16687949 1.2728959 -0.143716 0.6644655 -2.989594 1.1183993 1.5602125 2.0186172 0.6445492 1.4921185 0.95787364 -1.024855 1.9100566 0.863808 2.3583457 -0.36448708 -0.9065169 -1.4470456 -0.2698678 0.14479679 -0.62857354 0.072822064 3.6607203 -2.2781854 0.26667634 0.8358357 -0.37092832 2.0412762 3.3053658 2.9194453 -0.904136 1.5851406 1.8621898 0.47897387 1.4885222 -0.33062378 1.1280177 -0.028063811 -2.153027 -1.7881244 -1.9497299 -3.3198705 0.24919729 0.5604615 -5.1400385 -2.1699688
69 1.4658471 0.722152 4.9334264 -1.6227142 -2.3591797 0.17380625 -1.2783617 0.41428605 -2.1048565 -0.8642614 1.1141522 0.10037531 1.0998946 2.4041944 -1.2479544 -0.8433057 1.4961742 -0.5089433 -0.38073915 -1.1560646 -0.09577721 0.23032936 1.7148231 -0.7173396 0.7623723 0.39146033 -0.6489885 0.14909647 0.6423972 -1.4942089 1.1090107 0.5607837 0.7559893 -0.058085073 -1.2380534 0.78919387 1.3102921 -1.2751307 -1.8288022 0.14633071 -2.5643053 -0.5973837 -0.7341959 -1.6008137 -1.6884329 0.33178172 1.0069498 0.83363825 0.11260895 -0.650396 -1.0235795 -0.4110682 -0.44242218 -3.5191796 -1.0279481 0.4286142 -2.1590204 -2.6168995 1.522298 2.1455734 -0.54164207 1.5897872 -2.0322485 0.6205108 1.363963 -0.7576741 -0.18682298 -1.4724984 -0.7274371 0.74153155 -2.7843277 0.06811597 1.0646746 -0.63075674 -2.4389749 0.3344835 1.2671871 -1.5901167 -0.86361426 2.437627 -1.1824262 -0.4364601 0.1643242 -0.4935662 4.163415 -0.80153626 3.290266 1.2092509 -0.8737703 0.3655686 -0.45873266 0.6824135 1.3884184 -1.3052901 -0.855992 0.076630995 0.9556282 -0.38787103 -1.1947173 -0.6154734 1.5760115 0.91398233 -1.3095275 0.42271885 2.2295682 -1.4535979 1.7228032 -0.17260422 -0.9873994 2.664078 1.1129367 0.032434333 2.4328423 0.5429166 1.4430653 0.063527755 2.2913728 3.4337015 -1.4607809 2.2998455 1.6003305 -0.25409946 -1.1942854 2.3096077 2.1176803 -1.7313645 1.2466434 0.14509964 -1.7461052 1.0365775 -0.16901153 -0.73080444 0.6221251 1.7765462 0.22199492 -0.58056957 0.8759159 -2.5934107 -1.3728559 -1.2270842 -1.320994 -0.0623723 1.3156594 -0.35735893 -0.48764902 2.4877703 -1.3517516 2.3430157 0.8913927 0.87869596 0.9137613 1.7165637 -0.70258355 -0.059730835 -0.28065273 -0.2681036 0.24896614 1.3335962 -0.5496462 -1.3198835 1.2441646 1.3020344 0.37752515 -0.88452536 2.0165436 -0.12134129 -0.64058 -2.0852468 -0.09197422 1.2316848 -1.3385699 2.2835712 -3.113496 -1.6428181 0.5536674 -0.9008251 -0.9741124 -0.34044522 -1.068169 0.9755044 1.0876395 -0.68415415 -1.9685055 1.8367435 1.8857492 -1.2072468 1.3858503 0.6783436 1.1113901 -0.48637617 -0.10608779 0.052123018 -0.55371976 1.1980909 -0.12057385 0.69614154 0.5921079 -1.492333 0.9197773 -0.3460832 -0.087483436 1.5200974 1.3424896 0.09764972 0.77305436 0.53361565 -1.5167469 2.7037525 1.9455677 -0.31917092 -1.0219461 -1.5285641 -0.22020471 -0.40109947 -0.50224185 0.58204305 0.5339307 1.1421871 0.68712705 0.19174147 0.6063575 0.44636908 0.17574503 0.78146976 -1.4458683 0.82375073 3.0810192 0.556846 -0.5469103 1.148695 2.7746398 -1.34475 -0.31115204 -0.46632898 1.2245823 -2.0237486 1.1342868 0.6618747 3.6776059 1.0159771 2.251381 -1.9362786 2.2882025 1.2359325 0.9057832 -0.5654968 0.96106404 -0.7524467 -0.30279762 -0.97194135 2.5324223 3.0436604 -3.782389 2.507427 -3.738436 0.52195686
49 0.6818071 1.8496308 0.38564563 -1.4051632 1.241398 0.6351501 -0.36241445 -1.9705638 -0.25661168 0.07281053 -0.16831797 0.5486374 0.114931524 -1.3303472 1.2579662 1.2999538 -0.75956124 -0.04759049 -1.5091294 -0.78295 -0.4544825 1.3627799 0.6418836 1.4446254 -0.45942608 0.9388619 0.1286313 0.2889725 2.7098746 1.5902402 0.14546679 -1.5704913 -1.2041367 -1.9441174 -2.420871 -1.2101349 1.1217927 -0.9319471 -1.1620173 1.5614526 1.6927567 2.0983028 1.0039917 0.527971 -0.92972785 0.067777485 -0.9257573 1.7196358 -0.34544298 -1.0062342 -0.38805956 -0.6711155 1.2782277 -0.10988079 1.6950763 2.610815 -0.40654093 2.46276 -0.66386664 2.6830938 -1.0902901 -1.4547787 1.2720672 0.655781 -0.81714183 0.01349985 0.0591299 -0.657302 2.03279 -0.58125347 -2.8177118 0.6669153 0.6485131 2.17819 -0.9668878 2.316864 2.127338 -1.3069339 -0.3021632 0.14906253 -1.8525411 0.85159063 -0.05536392 -0.39011994 1.93824 2.1072872 1.2538784 -0.4118907 -0.33253083 0.7622625 1.190448 -2.301974 -0.17300689 -0.71924 1.1360173 -1.3297226 -0.3038476 0.11838162 1.2242049 -1.8725556 -0.310698 -1.0232519 1.2431428 -0.7251077 4.109235 0.42738152 1.1348975 -2.0566192 0.14433005 0.18670443 2.73223 -0.05269129 1.2320297 1.0116311 -1.0687803 0.157342 -2.6862357 0.34400764 1.9792941 -0.9391049 0.22018701 1.0715324 1.1201844 0.9621658 0.58360523 0.8687903 0.58272326 2.827737 -0.81047696 -0.8057773 0.50965893 -0.43482807 -0.15943648 0.6930678 -1.4872793 -0.046829026 -2.797598 -0.15815258 -2.8545194 1.7577854 -1.0851705 0.5690014 3.3229625 -2.7963903 2.732427 1.5175092 -2.0451214 2.7209532 -0.067841776 -2.50141 0.0034755801 -1.6630492 -0.94709885 -0.07720791 1.2897241 -0.39005777 2.599609 -0.6058553 -0.78736913 -3.2533312 0.30138755 1.4148175 0.3144698 -1.2671613 -0.4437959 -1.4324051 0.63058454 -1.5789412 0.80204767 0.6625373 0.40492696 0.89032423 -0.7546629 -0.20081115 1.076692 1.5616114 0.2317113 0.072220586 -2.0566308 -2.4135106 -1.5366594 -0.46215957 0.6844502 2.1031163 2.8882077 -2.2388036 2.1743286 1.0604033 -1.6588424 0.13123766 0.7179075 1.2157291 -0.55724365 -1.4830502 -0.06580104 0.22393031 -0.54417354 -0.6417148 1.7521058 -1.7811606 -3.2158496 1.8706808 -0.75566214 1.4151516 0.38819364 0.5553362 -1.5970265 -0.95506656 -0.8072501 0.8761837 0.6133684 -3.1408582 -3.901515 2.3117964 0.1581227 1.3223163 0.14009988 -1.6425463 0.8831921 -1.5704721 2.2734077 0.11791741 0.87362415 1.4758002 -1.5933808 -0.016444054 -0.28242058 0.99935377 3.9629307 -0.80552846 -1.3916132 -0.028482996 -0.5539464 -2.083289 -4.264439 0.3895785 -2.8167884 -2.013617 1.2712965 0.9511652 -1.917729 2.244029 2.1390069 2.2134452 2.926356 -0.5671798 1.5801182 -0.6326877 -1.3238893 0.52027 -0.085381076 4.201083 -2.2831595 -0.18596035 -0.22350186 -0.51909256
1157 -1.1766032 0.6523229 0.54986566 -2.936421 -0.3352824 -0.94099325 -2.9747496 1.8028127 1.1741983 1.829085 2.2905915 -0.7929677 2.4169083 0.73538655 -0.8396991 1.3004962 0.68553025 2.078077 -0.98630875 -1.2435049 1.3576444 -1.0512872 -1.9815488 2.9674678 1.3472837 -0.40493816 -2.0317686 -1.1772267 -0.036112532 -0.25759658 2.348917 -0.78147244 -0.7619851 1.1008061 -0.350015 0.46295628 -0.14747733 -1.8268148 -1.4582484 0.18490893 -0.28635484 1.2554228 0.98441327 -0.2276581 -0.33185086 -0.37765452 0.3448881 1.3776029 0.40893367 0.067053765 2.5358322 1.0221407 0.20576447 0.36593467 1.6217374 1.5081316 -0.8335027 -1.3458996 2.325834 -2.0769372 -1.9089386 1.1464579 -2.2883015 -0.7568976 2.0772247 1.0151889 0.48992047 -0.44616517 2.422241 -0.39867723 -2.4254127 -0.20388554 -0.55461985 0.5122064 0.70691264 0.4917898 -0.021850035 -3.7210872 -1.603967 0.23036467 -0.9093167 1.0529168 -1.4063423 -1.107807 2.1106577 0.6120196 -2.5697687 -0.53260857 0.5304637 -1.314858 1.1142005 3.8794255 -0.096286535 1.1048765 1.7608514 2.7017004 0.540672 1.5722587 -0.5946146 -1.1292425 2.410585 -0.9783457 1.351121 0.3191957 -3.0491803 1.2839359 4.956393 1.0244731 -0.07100322 3.5256016 -1.1472255 -1.0322635 -1.3771744 2.6474073 -0.56813264 -0.25332248 -0.75514394 -3.0247679 -1.5774531 2.0256863 -2.2725978 1.479147 -0.76158553 0.39728254 -1.078952 -2.542973 0.911275 -0.8749899 -1.2494694 -0.60549384 -0.21725328 0.18527648 1.6579998 4.544018 -0.7570144 3.3667355 -0.2188102 -1.7399551 0.96101874 -1.7173388 1.8961718 1.7434033 0.1444586 -0.8774821 -0.09627118 0.9289185 -1.0361419 -1.732055 0.3361306 -0.27757606 -0.5334018 -1.5638613 0.9039263 -0.9396056 2.8974304 1.5938541 -2.026767 1.1619766 0.02126141 1.1578048 0.2664903 1.8659682 -1.6787835 -0.58963567 1.0950081 -1.3375888 -1.9359509 2.065773 0.14182986 0.7303387 0.43159324 1.1129578 0.28476658 -0.4579584 -0.62496316 0.88274974 -0.062159967 0.7694521 -0.82787323 -0.51220405 -1.5054375 0.530591 0.3945896 -0.9140555 2.015878 -0.7122953 -2.0613105 1.4895498 -0.7498892 0.93721104 1.7227279 -1.3930429 0.7078129 -1.8747345 -0.49120453 -1.5393229 -2.5921078 0.6648037 -0.29505733 2.0636265 -1.047707 1.6906294 3.0664823 1.0035841 -1.7575779 -1.3745552 -0.20619096 0.09479511 1.0608901 -1.4341749 1.2633529 0.37412623 -0.3522375 1.6372677 1.5200466 -0.7002484 -1.2961547 -1.9452062 1.33517 1.5896112 0.39169335 1.543643 -1.8891873 -0.25346777 2.3368802 2.9981368 -1.018991 -2.0304132 0.889758 -1.0659068 0.5257512 1.2863172 -2.0900052 2.9561687 1.5350949 0.3871726 3.2510226 0.15243076 0.91768605 0.4545882 0.42806858 -1.6177875 -0.70292383 -0.08921686 0.20471442 -1.9022105 -0.06984526 0.3440857 1.2357979 -0.84599084 2.7066307 1.1016437 -1.6148722 0.42795363 -0.011654023 -0.9816773
160 1.1473019 1.3262273 -1.1405466 -0.62113637 0.46182585 1.1792684 0.18378893 0.050765757 1.6419252 -1.2457539 1.5859551 -0.63993114 0.26037103 0.45808434 2.6578076 -0.2963577 1.0946268 2.1296964 -1.2670816 0.91494906 -0.8907626 2.6804845 0.09869983 -0.6774122 0.85246867 0.65396 -1.606402 3.3606584 -1.8918447 0.61334676 -0.31806934 2.4150724 0.7028856 1.718618 1.0461957 0.10204326 -1.2939352 0.43029857 -0.918916 0.42037323 -2.356283 0.51049125 1.28872 2.0301464 0.39223087 1.4723594 1.7005271 2.175689 4.6692576 2.4732294 -0.856216 1.3986926 -0.08603041 -3.1257186 1.2514974 -0.417093 -2.728571 -1.5963099 1.615625 1.0993913 -0.22106077 2.8108122 0.45532107 -0.4779907 0.24128884 -1.8472513 2.5900037 4.3383794 1.5712239 -0.7547785 4.979116 -2.4270375 0.5060292 0.76361024 0.2462551 2.2110486 -0.75179434 4.37335 0.5420706 2.5308287 -1.7902939 -1.8560507 -1.830539 -0.43395212 0.69855523 2.7156026 -1.7133703 -2.222628 0.6495484 -0.3093813 2.1680079 0.28338107 0.41995695 -0.86252415 -0.32978672 -1.1117263 -0.4651156 -1.5594561 0.6020794 1.411116 1.0446166 1.0853504 -0.16622649 1.0842136 0.02419151 2.948 -0.6211139 -0.4256806 0.2157132 1.1393778 -4.6221166 -0.61783266 0.2808721 1.1586254 1.0700421 -2.6498702 1.3222691 0.63631517 -3.1043618 0.7019895 -0.58152103 -0.41205493 0.5119919 0.72161233 -2.0510423 -0.56998163 -1.7838979 0.2974234 -3.6320245 0.2119076 1.5636408 -4.130017 -1.5425588 -1.3034228 0.3889367 -1.0842288 1.9341716 -0.38283634 1.1634296 1.2401527 1.8201175 0.48044118 -0.78644973 -0.54217166 -0.8241186 -0.403919 -1.3997933 -1.353317 -0.7877547 -0.7211965 -0.12314346 0.49915615 0.7857575 -0.44673675 0.38198498 -2.940861 -0.5132618 0.71112245 -2.1578276 -0.42272952 0.5419958 -2.3170187 1.0140504 -0.18024527 0.5733407 0.37366226 -1.5753883 -0.16507104 1.4554468 2.0883102 1.257859 1.5895636 -0.35336408 -1.7442652 -1.6384977 0.7065895 2.1300573 0.59981245 1.9782319 0.8472315 1.5616511 2.1916885 2.1749315 0.3324448 0.14292964 -0.12282682 1.8078858 0.5937964 0.10162789 -0.057124406 0.8115123 1.2403919 2.1336303 -0.27521026 0.4590031 1.328349 0.031328004 -0.40390205 -1.6497253 2.8546011 -0.21985771 -2.596894 2.1048784 -0.120900944 -0.88360345 1.1890424 1.9306735 -1.6773034 3.3498187 -0.03447127 -0.6490536 0.97174096 -1.5406048 1.3179744 -1.5868696 0.3267805 -0.31314734 1.8331071 -2.0515773 -0.64333117 -1.2272712 0.9808625 -0.4035499 0.3672591 -0.55582154 -0.07293035 2.524983 0.10368975 -0.6109674 1.9697567 1.1958431 -1.5809225 2.0091958 -2.0901055 -0.8521666 1.3098303 2.2633257 0.17492074 1.0732772 -0.06177454 -0.6323858 -2.3167186 3.9961731 -1.122636 -0.5137755 -1.527928 -0.62729335 0.03731349 0.17540441 1.8176105 2.4197419 0.48773846 -0.7427654 -1.7896701 -1.6950421 1.1714458
848 -1.407845 -0.5144616 0.7902434 -0.2554468 1.9384426 -0.22838485 2.0640216 0.49567732 -1.2792314 1.5492367 0.1542526 0.315158 1.9474214 -2.556452 -0.59927034 -0.6667685 0.4071784 -0.97706777 -1.0798686 2.9165885 -0.69545436 -0.023540182 -1.3385879 0.7016333 1.6508787 0.813205 -1.9062237 -0.41956082 -0.7809247 -0.6885248 0.20154516 -0.5579627 -0.016128877 0.12595117 -0.32007506 0.7310192 -0.3498496 -1.2585598 -0.38429332 1.8312385 -1.4372518 1.2978263 1.5384042 -0.366484 -0.05636165 -0.76457673 0.9743781 0.5094707 -1.6633713 -0.59266376 -0.89122385 0.93405133 2.3950446 0.6949182 0.70348847 -0.62382096 1.1043695 -1.537733 2.5610642 -0.49719188 1.2969663 0.2607354 -0.2933368 -0.39939177 0.979247 0.93417406 0.24056895 -1.992818 2.3846793 -2.1180387 -0.98870206 0.5620849 2.0474222 0.56808907 2.070071 2.0622401 1.2611246 -0.22708812 0.8175263 -0.30649704 0.21122886 1.0803586 -1.7495228 -1.693068 0.9351501 0.086919144 1.696785 0.14271852 1.3276191 -0.05609605 -1.3575373 0.33642247 -0.66006094 1.0404298 0.76572424 0.41230536 1.0255449 -2.460194 0.9866831 -0.21766512 0.13471393 -2.4493294 0.060640167 0.3894442 -0.29599065 1.6614437 -0.14210874 0.07689572 -0.87573713 -0.8451245 0.7088225 1.5116438 1.3872521 -0.9716337 -0.21195085 0.19377115 -1.9207218 -0.74323255 2.1335068 -0.7433667 -0.49080238 -1.7086353 -1.9149303 -0.031100022 -0.05660187 0.5687965 0.022231646 -1.7309047 2.778245 1.5338638 1.9011618 0.44740537 0.12216692 0.2627168 -1.3781313 -0.7409795 -0.13021445 -0.29341742 -0.53402126 0.3063953 -0.058251955 0.38193005 -0.31257108 -1.0314093 1.9402465 1.2306354 -0.6323386 -0.05629897 0.710112 0.24577071 1.0308964 -1.1863241 0.263432 0.82464904 -0.6343897 0.6304906 1.7948236 -0.6829713 -2.0923429 0.39938527 0.0540386 4.302055 -1.3496889 -0.14868534 -2.1402354 2.0281105 0.8721947 1.157967 -0.66142994 2.0793266 3.105444 -1.3616809 -0.03130524 2.0690985 -1.3252966 0.99011153 -1.1834643 0.45699593 0.005950025 0.026280666 -2.1633918 -1.3647887 0.26863566 2.8173258 -1.835804 -1.4800416 -0.9053519 0.61032814 1.2776916 -0.35041478 0.16179058 -0.71917605 3.2845428 0.65698 0.90340585 -0.24010852 1.2646772 -1.3083371 1.0434692 0.996544 1.5066098 0.18173836 -0.79028213 -0.14063711 -1.9769332 0.04787722 0.672473 0.99694586 0.4749407 0.71221334 0.37872824 -0.66242296 -1.091368 -0.47917897 1.6872729 -2.0591383 -0.7349457 -1.0539626 0.9379859 -1.2705872 0.005532032 0.76144177 0.5716118 -0.15857565 0.5371445 -0.35304105 -0.80187595 0.612381 1.1955825 -1.8520794 -1.148027 -0.7016476 -0.11978876 2.6576498 0.12361574 0.27002877 -1.0085219 1.0924525 2.0311146 -2.5410817 -0.11515828 -0.25020015 -0.37026706 0.4525163 2.509957 -0.2729193 -0.0840198 0.36514652 -0.041677825 1.246899 1.3340342 -2.5954807 -0.13220444 0.0078417305 0.28073856 0.50672835
903 -0.06673946 -1.6680243 -1.094975 0.8129488 0.37630713 1.3454198 0.6410926 -2.1422572 0.1663091 0.99569577 1.9341927 -1.0407083 -0.94083416 -0.5532503 -2.6452496 0.90698075 0.068533406 -3.196425 0.7393835 -1.048207 -0.68223304 -3.8375149 -3.7933102 -1.1750344 0.44714317 -0.82572 -1.441353 -1.9457185 2.4834359 -1.5032614 1.3462235 -0.8168617 2.3445005 0.8069805 2.0009327 -0.078501455 -2.2701616 0.9807401 -4.529987 0.5714895 1.7441111 -1.9726981 1.049183 1.7926428 1.7686293 -1.323673 2.0717242 0.8794637 0.14554583 -1.0641168 -0.3543023 1.8856277 0.43268266 0.29567364 -0.22791614 0.22446065 -0.61701816 -0.27809998 -1.9707588 -0.79962033 0.86417276 -0.92959493 0.7673133 2.0659707 -0.9145478 -0.3669844 0.17909841 1.2635602 0.39846402 -0.44826558 -0.2988059 -0.7742258 1.5941575 0.38163352 1.3332338 0.5753866 0.78399575 0.65383947 -1.424944 0.24054173 -0.93395466 -1.2346368 -0.7678009 0.9787886 -2.056791 2.8660269 -0.07331114 0.020722678 -0.75804317 1.5792636 -1.9222395 1.545113 0.39034224 0.20589948 1.0814553 -1.1204399 0.56848276 0.86279404 1.0238744 -2.748452 1.3649278 -3.7219775 -0.037544083 -2.8454108 1.185915 -0.080532014 0.025162656 -1.1313531 -0.29811817 -3.0599177 0.6127915 -0.82650584 0.684433 -1.8119493 -1.2259495 -0.32111746 -0.86555976 -0.36525312 0.48009628 1.9387668 2.0293381 -1.0258297 -1.0302212 0.7249806 1.1874335 -0.16044809 -2.3513734 -3.0836773 1.8158978 1.1684623 -0.116999395 -0.19536048 -1.5564699 0.4277243 -1.0338383 1.1368608 -0.36786994 -0.9623118 -0.037553452 -0.09741936 -0.39802632 2.0181048 -1.4314709 0.265427 1.1102672 1.6058693 -0.019143622 0.32571507 1.2125515 1.3401378 0.8279502 1.5709121 -1.1326289 -1.9700487 -3.1962094 0.9018878 1.9686944 -0.08224739 0.7640682 2.371547 -1.0366225 0.465634 -0.7364654 0.15521893 -2.4012678 -0.6179687 -0.47190794 -0.16651529 1.2930166 0.020215217 -1.1073484 -0.781548 2.7773118 1.841348 -1.1822034 2.6200306 -2.0203445 0.34192348 -0.8380971 -2.3250647 -1.1389545 -0.23427805 -2.7820392 -2.2366302 0.59604025 0.045262422 1.2474474 -0.7217944 0.41214556 0.09183426 2.2936718 0.4194328 1.4397516 -1.171911 1.5280724 -0.03415765 0.76373637 2.310807 -0.1469236 -1.2184135 1.8555896 -1.996277 -0.6924333 -1.7275076 0.67893213 -0.5624694 0.4087803 -1.3823973 1.0076762 0.7654869 0.13699946 -1.7823915 1.6385148 2.600988 0.4842161 -0.6948184 -0.19760035 -2.3167422 2.0864754 -1.8406378 -0.563 3.6018488 -0.56949824 -0.08965725 0.86693144 -4.1983266 0.13890252 2.7510786 2.2423863 0.85226 0.05284327 2.949242 0.34903088 -0.3592979 -1.9496301 0.80002075 0.48085395 0.42447045 -2.2038832 -0.28085104 -0.538843 0.5078682 0.6254724 2.9724536 -0.6077326 0.29432547 -0.30141366 1.5361027 -1.1291893 1.2960808 0.15963997 1.4354373 1.0985761 2.3949845 2.879801 -2.0040503
197 -1.7982748 -0.6479749 2.2039058 1.1084697 -0.93929595 -1.4789993 -0.7601578 1.3189094 0.8443178 -0.18412712 0.47913095 -0.5501072 3.845839 0.7284619 2.0166142 1.8322642 -1.111152 0.5709222 0.7152055 -2.84076 -1.2798619 -0.49802116 -1.7126269 1.2995937 0.051899187 -1.3108301 2.803628 0.3379715 -0.31593344 -0.08021008 0.8972324 0.9929012 -1.2618825 -0.69477415 1.7010027 2.3506598 1.9272833 -1.306061 0.18636711 0.4159088 0.08052731 0.0014043153 1.3623235 0.3754485 -2.1019278 -1.0653671 -0.89580363 -0.9704371 -0.78711367 -0.7313699 1.3237995 -0.3476641 -0.16505352 2.9330075 0.7610948 -1.0819751 -0.14226303 -0.7087007 -0.7423815 2.1147463 0.02460477 -1.4261751 1.0432323 -0.34034956 1.2147086 -0.4479333 -2.2087955 -0.28692508 1.6457914 -0.33517137 0.624967 -0.9280692 -0.44664347 1.7939754 -1.3447645 -0.5922631 -2.692279 -1.1541554 2.080682 -2.794312 -1.1523912 1.2969565 0.49421367 -0.2470127 -2.010296 -1.52584 -3.0413263 -1.7275709 -0.9760291 -0.90408856 0.89846325 3.178644 1.3246504 1.6703638 1.5669372 1.2791184 0.31104323 -1.7035744 2.642886 2.6106997 0.8449271 0.55345654 -0.40307847 -1.7492442 -0.1160501 -0.734124 1.0743409 0.019799417 0.8983526 -1.013879 0.69454616 -1.4413142 0.6151982 -3.345294 1.1046965 -1.6006287 -1.0995033 -1.2131207 1.3276905 0.48835877 -1.272086 0.13459542 -1.6448683 0.048418656 -0.957837 1.552098 1.8883055 -0.1925332 1.0190028 0.8982294 -0.69538325 -0.78337246 1.3561983 -1.0268188 3.0160382 0.31243435 -1.7301971 1.3945563 -1.9496616 0.6549518 0.79731476 1.2684149 0.36893007 -0.8385743 0.6266222 -1.6737837 1.4818778 -2.7670925 -3.0669234 3.009502 1.0249952 -4.3244357 -1.4585679 2.1625056 -1.8541808 0.40616018 0.20564206 1.4010998 -1.313339 2.0204868 0.7171743 1.0874553 -1.4605434 -0.8190065 -0.8446418 0.7034651 -0.4199109 3.3510246 0.026470346 -0.97745526 -0.43759423 -3.9570184 -1.9108093 3.1965768 0.31996793 2.1823027 2.5270514 3.188684 1.3281115 -0.87616915 1.5360233 1.1620277 -0.26880693 -0.8692462 0.040667795 3.544867 -2.071839 -0.968719 0.20712301 0.99856466 -2.634851 0.041515857 0.7422181 0.6276198 -0.22782847 -0.88063985 -1.0589837 -0.34486288 -1.1389905 0.39327523 -0.07193104 1.1280152 -0.04790203 2.2583275 3.57239 -0.9186033 0.36479872 -0.8971497 -0.5035761 -2.4452057 1.0246338 -1.1134233 1.0308244 3.7187774 0.39338285 0.5037667 0.48272505 -1.4736773 -0.8524155 1.723432 2.3375537 -1.2826575 -0.22257741 -4.3561816 0.35966215 2.547728 0.4121769 -2.187951 -0.52422047 0.03329944 0.7996955 1.2777252 -1.9586655 1.8379164 0.9946178 0.23030086 0.11647688 -0.11247027 0.014157297 -0.36546633 -1.1449269 -0.021297218 -0.6978924 1.0577029 -0.6748267 1.422359 -0.21164204 -0.6238261 0.42311096 1.5593243 -0.77111447 0.42068422 0.5573795 -0.866818 -0.95394737 1.1920604
447 -0.26930192 -2.445797 3.3270402 -1.8069727 2.1083686 2.071036 1.6060463 0.54398113 0.5393197 2.8050435 -1.3329479 0.43372446 -2.6813953 -1.618177 -2.3836112 0.27614674 -0.7183823 3.8309028 1.2345247 0.8093317 0.16900112 -0.68584967 1.4267069 -2.594851 1.4811262 0.19091032 0.9861779 -1.0787324 0.24892248 -0.23675595 0.9361212 1.8750217 -0.14365463 1.9672165 -4.8792973 1.0395033 -1.3983197 -1.7149711 -0.8037572 -3.3381503 -2.3473363 -2.2544403 -2.21723 -1.4878216 -0.19734158 1.4154164 -1.6189685 0.14301261 -0.24761964 0.09066763 0.8150218 1.2932379 1.0729159 -1.3003305 -2.8340957 -1.187047 -2.1448693 -2.2115188 -0.9391924 0.6172005 1.5454959 -0.39025784 -0.25475615 -1.4435102 -1.1374316 -0.6674081 2.6156847 -0.089930594 -0.7051028 -0.89751124 0.035988882 -1.1695294 1.2818009 -0.52074623 -0.7393716 -0.84772336 1.2049989 -1.6114688 -0.41916454 1.6796217 0.8442731 -0.166639 -0.394339 -0.24925171 0.82027435 -0.85511094 0.78910166 -0.3584336 -3.5779781 1.0280287 -0.5858803 -1.4408884 0.42974094 0.3919513 0.22781566 1.5639626 0.13094947 -0.36362806 -2.1077712 -0.9551034 -1.3436768 0.06274294 -0.5803815 0.19339427 2.8225245 -0.096907124 -3.5272634 -0.8548378 1.203296 4.1129336 0.5491838 0.36741683 0.5827409 1.9778751 -0.65021265 0.055776563 -0.6492053 0.12707771 -1.6727929 -0.81701475 -1.5758194 0.4811775 0.0168998 -1.6581286 -1.47537 -0.5077797 -1.8025092 0.054326996 -0.8206295 -2.1586437 -2.6789532 -1.4751202 -1.519666 1.8663278 3.0630753 -0.14827216 -1.6421363 -1.245712 -0.7939073 -0.5663564 -0.3508762 -0.94683534 -0.34154066 1.0037309 1.6611766 -2.3752978 -3.5730474 2.3748038 -1.2856737 -0.57581204 -0.14127219 -0.30588058 1.8980953 -0.64843327 0.14921439 -0.9771167 2.2491071 -1.1659789 -0.77360916 -0.62307525 1.0921673 2.987124 -1.8653625 -0.89864683 -0.8607181 -0.2549299 -2.2123375 -0.09536949 -2.1545386 3.3725665 2.2512465 1.9294007 0.2652084 -3.0397084 0.6728717 0.43558604 2.688791 1.5261793 -1.2952151 4.283691 2.7612092 0.63367647 0.43296865 -3.6994853 -0.11934838 0.06199995 -0.7354238 0.10269946 1.874632 1.277219 0.73558056 -1.3573947 -0.3147315 0.25772402 -0.82691234 -0.83729774 -0.5780053 -0.5423021 1.9056678 -3.755523 0.40542707 0.8847631 0.3958649 -0.08356368 -0.90618056 -0.9257023 0.18064293 1.2567863 -1.7437509 0.24887694 0.7503635 -1.749181 0.4683374 1.6230562 -2.2870338 2.327141 1.4964249 1.9222422 -1.9635276 0.08663102 0.09074825 -1.0279311 0.94116503 2.282237 0.96875596 -2.285266 1.3880179 -1.5575676 -2.0263438 2.2716508 -1.4141264 0.41542014 3.0989048 0.30663776 0.123412594 -0.1137547 -1.0812137 -0.86781013 2.520064 -1.2300692 -2.1159384 1.5890946 -0.69769925 -0.5222888 0.04123695 -0.053576548 -1.7774626 0.6839311 -1.0763038 -3.2536001 -0.054910447 -1.9557432 0.61127025 1.5799278 -2.1630888 -0.7078288
981 0.29904905 1.4156966 2.568047 -1.4014009 -0.899928 0.16036294 -0.85787886 -0.013771143 -0.3581606 -0.7739326 -1.9168499 -0.6561998 1.0480207 0.95841426 0.4642859 -0.21328235 0.768428 -0.38118646 -0.8910278 -1.8316023 0.059916154 -0.8509982 0.93223906 1.1939291 -1.5345092 -0.49273846 -0.815433 0.88107514 1.0561996 -1.324512 -0.15869 0.5548227 -0.5635719 0.67185676 -2.3719347 0.2878904 -1.1322924 -1.2160914 0.027367651 -0.9029814 0.24862777 -0.5425641 -1.0599461 -2.131607 0.1509475 1.1870552 0.66059464 2.4906218 -0.29755905 -1.2093134 0.6861932 -0.25118575 0.4309323 -2.8976176 -0.52256286 -0.2638191 -0.087279424 -1.7051064 1.4230483 1.8577893 -2.7065315 1.5749861 -0.3127892 -0.6499066 0.6944477 -3.1052978 1.2872198 -0.25670695 -1.0372548 0.6909587 -1.6489899 -0.9385909 -0.807041 -0.62959814 0.09652558 2.6214375 1.7313461 -0.5423838 1.6026484 1.6397724 -1.2418703 -0.44902045 0.6871857 -0.81280273 2.470308 -0.39946643 3.1807876 0.42613894 0.47804207 -0.8359716 -0.06582189 -0.26051858 -1.0404208 -1.7663059 -0.9935231 0.01385754 1.4946691 -0.70435166 0.61124074 -1.0271868 1.7958637 0.001821264 -1.4493303 -0.7774719 2.7965224 -0.38286436 1.0694743 -0.5414159 0.37639785 1.6387383 0.2931342 0.74270463 0.23590063 0.77940917 0.9123258 -0.55997425 2.3748415 0.91931254 -1.9033911 1.9196197 1.2678508 -0.034344655 -0.7246982 -0.07547179 2.0555034 -0.9621172 2.4271631 -0.5945263 -1.3266367 0.45936865 0.55676746 1.2380364 0.8205395 1.8352233 -2.5047522 0.03297819 0.43478018 -2.3058977 -1.2475238 -0.10797232 -1.9805876 1.0176661 2.1586869 -1.6013345 0.34087023 2.0778291 -0.15557443 1.3804404 -1.0928316 -0.0649245 1.2265137 2.262219 1.2011685 0.034653958 -0.8541455 0.35342425 -0.041275118 0.65439224 0.51352 -3.0707517 0.6584996 2.0785983 -0.0035009335 -1.3775336 -0.5585784 0.20541033 -0.09270577 0.15246542 -0.36247292 4.2941756 -0.66769266 1.851591 -3.0534797 -2.408388 1.624515 -1.9307863 -1.3784517 1.526179 -1.7509717 0.8599374 -1.4575509 0.097598895 0.99346995 2.8548596 2.2787101 -1.5179014 0.24150744 1.8085275 -2.8808024 0.0082587255 -0.3195419 1.1343741 -2.3357806 0.018553415 -0.97498596 -1.4137672 0.7479781 -1.4900037 1.506274 -1.8393228 -2.3118129 0.64654636 1.2637925 -0.6684601 0.9727261 -0.029328337 -0.83404016 1.0487479 0.76697224 1.0398757 -0.34801227 -0.20230176 -1.4856887 -0.9379566 0.39854372 -0.8792934 0.07636277 -0.5735464 -1.053219 -0.31101543 0.16599561 1.4166125 1.0564506 0.24416752 1.2715582 0.15626241 1.7167954 -0.4923893 0.019502996 0.85964674 1.9472911 -1.1151204 -1.5789071 -0.39364314 -0.0048241857 1.3036237 0.82529837 1.3428723 0.37850922 2.317612 0.95529336 0.004050438 1.0486796 -0.80522203 -0.73774976 -0.38661987 0.7706481 -0.25327787 -2.0187974 -2.7036457 2.370436 2.5901747 -2.4736235 0.43499595 -3.6991773 0.84484076
837 -0.6529199 0.9549311 -1.6665326 1.2723495 0.42720196 -1.5639123 0.64774066 -0.54824144 -0.8451107 -0.68577015 0.5858064 0.36452442 -0.44763908 -1.6038041 -2.4090858 -1.8419205 1.9658386 0.51310086 1.2744122 1.1735985 -0.07421004 -0.19427396 -0.35818544 -0.6533814 -0.0049334024 0.7595469 1.0544362 1.7284677 -1.9490213 0.056093507 1.4545578 -0.40241164 0.652506 0.4226077 0.59915274 1.0900797 -0.55629826 1.4179189 0.95128673 0.5818927 -2.4140153 0.093092464 0.6845062 1.052638 2.6045108 1.1558938 -0.66653246 2.1994762 1.3037176 3.5083408 -2.1074495 -0.72579443 -0.760736 -2.350793 0.313578 -1.0876863 -0.9401186 2.3485036 -1.1511862 0.7017568 1.1074504 1.9412317 0.5599874 0.93006366 3.4848409 -0.5921635 0.6923502 3.3371248 1.5404994 -1.2016459 2.3560936 -1.6340609 -0.13587573 -1.4655472 1.3529532 -1.2039425 -0.90970397 3.078631 0.27526 0.3273649 -1.1632355 1.5911049 -0.32325175 -0.9060056 3.5950277 -0.14238906 -0.5098914 -1.525646 2.5900877 0.2265372 1.8320822 -1.8131646 0.09612357 -0.8393896 -3.2662594 0.38049883 -0.2588673 -1.3527615 1.4176126 -0.6559528 -1.0608953 1.1124387 2.2459376 0.9780617 -1.2106273 -0.74270684 -1.5481683 0.6684943 0.28883022 -0.045147944 2.042999 -1.670962 -2.6070087 0.33295128 1.6020485 -0.26948443 0.09269518 -0.2534023 -0.1300117 0.1828499 -0.6582418 -1.2647839 0.7966657 0.602029 -1.4266276 -2.0296063 -1.284281 1.3495263 -2.0999086 -0.27160752 -1.774925 -1.3647498 -0.5572622 -2.7546756 -0.2197588 1.2237276 0.594636 -0.08994915 0.95731354 0.18505414 0.47211012 -2.4470475 0.19336791 -0.11880522 0.9692219 -0.4141844 0.9988284 -1.7040695 -0.74747235 -1.2437351 0.76863444 -2.7470675 0.087766424 3.5450594 -1.7117703 -3.036749 -0.93362457 0.38684598 0.7925308 0.5671543 3.001419 -1.9701848 0.4943871 0.9663596 0.15174586 0.90716743 -0.019960025 -2.1235325 3.2688434 -0.09245689 0.1685639 1.563965 0.4786743 -2.489858 -0.35048217 -0.31389418 2.278233 1.4258668 -0.8105974 0.8128416 0.21751982 1.7147895 -1.1545258 -0.7125818 -2.7798023 3.6750622 1.6843798 -1.0055598 -1.0883347 -0.5600143 -4.2720995 0.2560535 2.7217863 -1.5865139 -0.33909178 2.4588048 1.9716345 0.39435905 1.2874038 -0.7955276 -1.978326 -0.33469176 0.64833784 2.3968053 -0.65177935 2.9171233 1.5863518 0.88327366 0.39814928 2.1248536 0.2548677 0.51454854 1.11721 -1.5821034 -0.37334248 -0.16423272 -2.796742 0.10885509 -2.6914387 0.11007648 -3.635866 -0.10532147 0.16677828 -1.3409641 1.7779499 2.0384333 1.6378683 -1.546502 -3.4699454 2.9101286 3.5980208 0.51401275 -0.5090104 -2.9227192 3.6611602 0.25656188 -0.57513934 0.9376735 1.1993358 1.3132539 -1.4745847 -1.5312792 1.0004886 -1.9471396 1.1307764 -1.2343993 -2.9194295 -2.5189521 -0.42387787 3.1239793 -0.7825806 -0.3239121 -0.8966602 -1.8978466 1.0559936 -1.8543239
971 -0.078706466 1.215157 -0.8600649 2.328504 1.4821877 0.37048438 2.0631104 1.3601944 2.0597327 1.2532947 -1.9274637 1.2661635 -1.8252583 -1.2825434 0.52028036 -1.0533803 1.4794086 -1.5442063 1.4742585 2.5622203 1.7685152 2.7530522 -0.62254196 -0.15286392 -1.3219804 -0.8765472 -1.0492152 0.3429698 -1.5001415 2.395221 -0.046478778 -0.5081108 1.3314332 1.238551 -0.74175805 -0.14500938 -0.17311549 -0.8619311 -1.2101898 0.26820737 1.2472955 -1.6692169 0.7117555 -2.0243676 0.75091046 -0.4887792 -1.8430014 -2.7195294 0.0455572 1.0536546 0.8296643 -1.3918842 1.6765995 0.7176677 -1.6485178 0.5050917 0.33237967 -1.2471906 -1.7424976 -0.5781996 1.6031278 -1.0882868 1.2115488 0.74845123 0.45942187 2.1585062 -2.6502404 -1.0801994 2.1839721 1.5915341 0.52888936 0.8181795 -1.484069 -0.45004877 0.13793129 1.0362518 -0.00317094 2.7014408 -0.4954295 -2.3887758 -0.8478078 -0.4758482 1.2485703 -0.1698853 -0.66364455 1.4654871 -0.8442479 -1.1703688 4.577578 -0.87435216 -1.5650524 0.13857162 2.312555 -1.7195702 -1.9523687 0.9214171 2.7320867 2.3188026 -0.16797002 -0.13449188 -0.666887 0.08240852 0.70425874 2.2629411 -0.3658789 -0.11037663 -1.2738965 0.15481086 -0.09594759 1.4230629 -0.10636466 -1.6839753 1.2835579 -0.6871573 -1.622816 -0.20627284 0.13137865 0.54530036 4.934382 -1.6364812 1.2583978 -1.4466655 -0.5879036 -0.9480103 1.6035786 -1.0671724 0.9616604 3.033616 0.6138338 -2.1315844 1.1257964 -0.28876707 0.32936925 -0.32681125 0.78317934 -0.33428374 1.6117254 -1.3424269 0.40333354 -1.3069974 1.5440376 -1.5497626 -1.0060475 2.1762154 0.9361445 0.5207733 4.140891 0.6071664 0.120171905 0.16844483 -0.6452668 1.4553164 -1.5343053 -1.9533305 1.8746212 -5.029644 0.9962759 -0.09654727 2.9265301 0.65927744 -2.9703708 -0.7063904 0.22438039 -1.7547777 0.049038865 1.3180815 1.2634811 0.5258737 0.05716569 -0.39596492 0.34572765 -0.12144919 1.816819 0.28097445 0.77847326 -0.36127543 -0.95232624 -0.010542296 0.95014316 -0.35068905 -0.8751236 0.715575 0.1235191 -0.19023095 0.27454633 -1.2923405 0.38910502 1.2594407 0.67378336 -2.7276504 -0.6988371 2.607385 -2.129767 -0.4937327 -3.57406 0.9305418 0.21182711 -0.2001303 -2.0449667 0.80383694 0.16842106 1.803506 -2.0040987 0.43317354 0.0371145 -1.0341964 1.2623354 1.9700673 -1.5149249 -3.2552397 -1.4355987 0.94659835 0.9301171 1.3441358 1.2285877 -2.05605 -0.39983124 -0.99817675 0.22865815 0.648087 0.026608922 0.06901417 -3.3796754 -2.945986 -1.4482325 -1.265059 -2.2095215 -0.87605685 1.6972967 -1.600211 -1.4354031 -2.2860563 -0.06695929 1.6951911 1.2875901 1.9667314 -1.8947382 -1.2092917 -0.88810676 0.28735733 -0.40361166 0.3602822 0.4584254 -2.8561878 -0.60147434 0.54260933 -0.7650499 -2.5677865 -0.79839295 0.48185223 -1.1188587 0.30198655 1.2546406 0.17510577 0.4844869 1.4833982
